692 100
6CsCi 0.29287 -0.49268 0.090459 0.18497 -0.38824 0.17473 -0.084365 0.15137 0.096926 0.085649 0.12136 -0.01567 -0.15005 -0.049443 -0.3041 -0.18955 0.14443 0.14784 -0.0019869 0.2034 0.12091 0.21679 0.093442 -0.10484 0.29665 -0.30886 0.15907 -0.11654 -0.52486 0.087769 -0.10006 -0.043876 0.13069 -0.19551 0.11365 -0.30329 -0.060966 -0.33295 -0.31263 -0.18431 -0.22721 -0.007842 0.16008 -0.0032548 -0.32036 -0.23826 -0.016442 -0.10997 -0.33842 0.19499 -0.071472 0.37403 0.11572 -0.1581 -0.22056 0.17589 -0.012757 -0.15836 -0.0074265 -0.36895 -0.28053 0.25558 -0.13409 -0.18746 0.16997 -0.021933 -0.10615 -0.12876 0.21076 -0.04999 -0.19704 0.20813 -0.195 0.13012 0.20537 -0.032018 0.38521 -0.18928 0.12215 0.12151 0.44682 -0.30915 -0.074526 0.16032 -0.13607 0.067933 0.23966 0.19057 -0.043514 0.061219 -0.12736 -0.16477 0.12806 0.19105 0.55611 0.23349 -0.013393 -0.36237 -0.077924 0.25688 
</s> 0.21749 -0.062069 -0.027432 -0.14923 -0.45734 0.015723 0.099738 0.2118 0.18242 -0.181 0.044822 0.15452 -0.32219 -0.032606 0.094117 -0.00733 0.15909 -0.094914 0.023096 0.036965 -0.11776 0.14658 -0.2577 -0.097482 0.3689 -0.10765 -0.13098 -0.084713 -0.10581 -0.28931 -0.14814 -0.02475 0.0040646 0.0714 -0.0074591 -0.10807 -0.018537 0.15708 -0.24015 0.099527 -0.3337 0.057954 -0.16773 0.1167 -0.091309 -0.30202 0.01828 -0.062069 -0.21743 0.13128 -0.078666 0.13792 0.066192 0.0036457 -0.13404 -0.047031 -0.12128 0.077036 -0.19888 -0.48274 0.19774 0.064729 -0.12955 -0.46219 -0.17247 -0.21765 -0.37392 0.10191 0.17223 0.15841 -0.38903 0.36807 0.085993 -0.027564 0.28608 -0.19828 -0.012332 0.030295 -0.035965 0.28773 0.056941 -0.051597 -0.23768 0.22076 0.12378 -0.19705 -0.028516 -0.24318 0.12397 0.068219 0.057963 -0.010152 -0.093094 0.017383 0.11422 0.22521 -0.0099344 0.1215 0.18655 0.28243 
65BUS 0.2103 -0.36806 -0.3337 0.53419 -0.19979 0.10154 -0.037312 -0.0039667 -0.0040595 -0.053892 0.15756 -0.24846 0.04004 -0.077775 -0.3486 -0.32113 -0.20873 0.27692 0.040106 0.039687 0.28145 0.043886 -0.098058 0.022161 -0.14132 -0.26946 0.34868 -0.1945 -0.16033 0.26112 -0.17715 -0.022881 0.093088 -0.28114 -0.013755 -0.16331 -0.10144 -0.23076 -0.21519 0.064916 -0.076182 0.090665 0.25398 -0.066556 -0.31168 -0.45358 0.060051 -0.15698 -0.24274 0.16998 -0.098018 0.059866 0.050797 -0.22045 -0.23446 0.022418 0.0044099 -0.17809 -0.28372 -0.21513 -0.094116 0.0021125 -0.157 0.1127 0.13798 -0.17912 0.19873 0.021546 -0.12894 -0.37978 -0.0081413 0.14332 -0.31279 0.081279 0.098533 -0.14704 0.14728 -0.22481 -0.11541 0.019041 0.61055 -0.20004 0.081866 0.019808 0.10776 0.23413 0.045225 0.021892 -0.30579 -0.17251 -0.1425 -0.11201 -0.026486 0.43925 0.5595 0.31264 -0.18961 -0.80542 0.05543 0.27113 
68_dc 0.36301 -0.40433 -0.23375 0.36 -0.49269 0.21409 -0.15091 0.060098 0.11957 -0.063335 0.21479 0.15405 -0.2469 0.23998 -0.40492 -0.073269 0.013396 0.32108 -0.022464 0.1954 0.12451 0.17219 0.018521 0.16622 0.27217 -0.27081 0.22321 -0.31054 -0.32434 0.065261 0.17808 0.069985 0.042524 -0.17185 -0.053677 -0.15778 -0.3965 -0.31689 -0.12341 -0.22166 -0.041371 0.22207 0.19783 0.11238 -0.29708 -0.58846 0.15579 -0.17527 -0.37574 0.11373 -0.087822 0.19611 0.018231 -0.38609 -0.3678 0.041561 -0.21028 -0.17812 0.36728 -0.15691 -0.34543 0.076586 -0.088849 0.015569 0.069075 -0.15499 -0.040641 -0.19065 0.2346 -0.18488 -0.12402 0.24382 -0.25109 -0.044703 0.14752 0.017703 0.20478 -0.096478 -0.13627 0.060236 0.62206 -0.28909 -0.095049 0.22037 0.33034 0.16095 0.283 0.1751 -0.0044738 -0.13335 -0.17623 -0.28076 -0.056158 0.48367 0.66641 0.020886 0.17912 -0.47836 -0.13286 0.31495 
6Ei7Q 0.33106 -0.54661 -0.52402 0.71227 -0.66051 0.25243 -0.2107 0.25619 0.18791 -0.23776 0.37735 0.075728 -0.1172 0.37613 -0.15091 -0.27288 -0.21182 0.020675 -0.095798 -0.02062 -0.17511 0.48346 -0.0023738 0.11213 0.11519 -0.19171 0.61307 -0.4797 -0.12523 -0.32703 0.0026788 -0.0023571 0.11587 -0.1227 -0.076013 0.053853 -0.64328 -0.15243 -0.33919 0.22666 0.17071 0.25458 0.04022 0.40342 -0.46496 -1.0927 0.39058 -0.12963 -0.89189 -0.17075 0.15247 -0.071143 -0.38105 -0.43071 -0.26817 -0.26392 -0.27427 -0.084678 0.23238 0.14423 -0.55127 -0.066057 -0.07749 -0.21761 -0.016299 -0.2301 -0.15897 -0.045107 0.17266 -0.22694 -0.20705 0.69538 -0.10326 0.16038 0.05056 0.021732 -0.17601 0.026565 -0.542 0.11551 0.76716 -0.32702 -0.17221 0.333 0.5908 0.25238 0.012476 -0.56365 0.26088 -0.31435 0.00086171 -0.27823 -0.35008 0.55759 1.1503 -0.16104 0.55764 -0.41189 -0.15305 0.4657 
5_38w 0.78833 -0.70998 -0.29824 0.47556 -0.4811 0.37401 -0.15909 0.51028 0.0062744 0.032482 0.19473 0.058247 0.32361 -0.059698 0.019578 -0.70847 -0.41767 -0.065915 -0.1419 0.18459 -0.18906 0.33912 -0.13202 0.26372 -0.54377 -0.37499 0.24298 0.090923 -0.64323 0.66771 0.23309 0.1303 0.45066 -0.2962 0.40991 -0.10169 0.27747 -0.079361 -0.38883 0.10242 0.14435 -0.0011268 -0.0036947 -0.18504 -0.428 -0.64178 -0.13678 -0.36444 -0.61 0.32543 0.13544 0.032655 0.043879 -0.37579 -0.22929 -0.50081 0.076735 -0.73744 -0.22371 -0.47994 -0.32564 -0.2664 -0.43235 -0.087393 -0.0027382 0.09773 -0.63857 0.36444 -0.29086 -0.65988 0.056984 0.29694 -0.015748 -0.21308 0.050411 0.18483 0.21728 -0.00067187 -0.16683 -0.050444 0.92321 -0.13578 0.27057 -0.26534 0.21864 0.15422 0.30305 -0.28109 0.18219 0.074187 -0.30101 -0.11632 -0.32047 0.34594 0.51364 0.6136 0.0073135 -1.009 0.26085 0.080922 
6AaSQ 0.77953 -0.66562 -0.25492 0.47179 -0.59829 0.3551 -0.15337 0.51361 0.058604 0.036634 0.21015 0.11628 0.24247 -0.061154 0.032203 -0.60411 -0.33929 -0.0069755 -0.16441 0.29921 -0.19053 0.37896 -0.10472 0.22509 -0.39431 -0.39224 0.19371 0.12634 -0.65086 0.61921 0.31356 0.18785 0.40471 -0.2895 0.40325 -0.097552 0.2606 -0.13038 -0.34659 -0.0599 0.08042 0.01355 -0.070609 -0.13395 -0.43352 -0.59133 -0.12113 -0.42035 -0.60281 0.41365 0.087437 0.097956 0.10715 -0.39738 -0.16523 -0.46363 0.10928 -0.84447 -0.206 -0.51487 -0.33539 -0.18285 -0.43095 -0.12274 -0.046685 0.12835 -0.62848 0.31452 -0.25693 -0.58696 -0.099697 0.3805 0.011926 -0.25638 0.16468 0.15458 0.27907 -0.030454 -0.19064 -0.058597 0.90816 -0.18359 0.17851 -0.11637 0.217 0.10286 0.36507 -0.26731 0.25925 0.18819 -0.31316 -0.055469 -0.32375 0.31137 0.54238 0.5397 -0.0099115 -0.95374 0.15143 0.12895 
6AY0A 0.85448 -0.68232 -0.44061 0.56115 -0.86702 0.29974 -0.062863 0.7439 0.20788 0.04885 0.22674 0.19609 0.23457 -0.19264 0.24609 -0.65303 -0.15925 -0.11075 -0.057298 0.2652 -0.30618 0.38443 -0.27161 0.3558 -0.32259 -0.22067 0.21854 0.061143 -0.77873 0.29916 0.24041 0.34193 0.36703 -0.34219 0.38723 -0.12469 0.18046 0.057125 -0.27159 -0.081252 -3.3375e-05 0.058997 -0.20818 -0.20306 -0.39363 -0.8077 -0.10964 -0.50479 -0.65828 0.55639 0.03529 0.044511 0.11923 -0.34312 -0.11865 -0.66696 0.01131 -0.97125 -0.25355 -0.60561 -0.27316 -0.092839 -0.27451 -0.3654 -0.26541 0.11224 -0.74584 0.40433 -0.35339 -0.41291 -0.3489 0.60116 0.0081138 -0.48749 0.34675 0.1432 0.29897 0.1616 -0.26165 0.017001 0.90539 -0.19771 0.087288 -0.056496 0.21471 -0.069707 0.32436 -0.48903 0.34804 0.38316 -0.19647 0.021876 -0.45144 0.27107 0.59976 0.83143 0.098054 -0.86619 0.059864 0.29409 
63FiQ 0.21737 -0.54306 -0.6169 0.70247 -0.55101 0.23215 -0.27697 0.038909 0.080092 -0.21805 0.35393 0.076794 -0.21598 0.38399 -0.24192 -0.16769 -0.24576 0.25248 0.0018957 -0.023887 -0.098931 0.35183 0.0076931 0.11809 0.038293 -0.22157 0.63059 -0.48717 -0.024128 -0.32288 0.037161 -0.0093262 0.014252 -0.070574 -0.22509 0.057154 -0.55784 -0.30565 -0.20194 0.28917 0.27464 0.40691 0.060885 0.34734 -0.56701 -0.99886 0.53227 -0.1202 -0.72819 -0.15181 0.20911 -0.18221 -0.28372 -0.44865 -0.22003 -0.16394 -0.22338 -0.09147 0.15539 0.24287 -0.5013 -0.026717 -0.16304 -0.14562 0.015708 -0.21425 -0.10827 -0.16302 0.10426 -0.33458 -0.075577 0.5786 -0.050218 0.18492 0.10259 -0.090833 -0.23275 -0.062423 -0.55431 0.042256 0.86579 -0.39163 -0.14584 0.37126 0.58179 0.37683 0.052279 -0.58617 0.25589 -0.3636 -0.030742 -0.24092 -0.24103 0.64416 0.99537 -0.37922 0.49146 -0.34328 -0.10433 0.3229 
659nE 0.28255 0.23913 0.099748 0.088156 -0.33884 -0.044441 -0.033472 -0.34748 0.11697 -0.22378 0.18872 0.094222 -0.17926 -0.14165 0.16465 0.074844 0.27439 -0.10738 -0.021682 0.16632 -0.078836 0.1915 0.035608 0.011547 0.37524 -0.0097681 0.0021272 -0.2817 -0.13736 -0.42726 -0.06307 -0.22165 -0.085476 -0.16056 -0.14794 -0.22555 -0.11086 -0.14599 -0.23309 -0.11522 -0.47641 0.071476 0.071532 -0.047831 -0.38934 -0.10038 0.057992 0.042303 -0.35462 0.0095342 0.0070101 -0.061591 0.39766 -0.22928 -0.42963 -0.11129 -0.32358 0.22578 0.17753 -0.2654 0.21152 0.028026 -0.16166 -0.20229 0.1152 -0.3614 -0.35375 0.13883 0.24687 0.50894 -0.082269 0.42176 -0.11599 -0.20056 -0.040353 -0.33592 0.065605 0.13159 0.040107 0.34129 0.11596 -0.25735 -0.16906 0.24162 -0.063325 -0.024797 0.25299 0.12356 0.051122 -0.063954 0.028841 -0.38215 0.12431 -0.032097 0.16315 0.085476 -0.10641 0.20109 0.13886 0.14707 
694Vo 0.44591 -0.36515 -0.12925 0.14685 -0.68695 0.1591 0.16552 0.58105 0.19603 0.14629 0.12123 0.095304 -0.099763 -0.33397 0.15416 -0.44751 0.16705 -0.044698 0.046727 0.053375 -0.19224 0.2212 -0.36306 0.22041 0.13979 -0.12316 0.19034 0.021692 -0.55164 -0.0117 -0.13255 0.13869 0.15067 -0.18224 0.026797 -0.1834 0.047691 0.098616 -0.014439 0.021642 -0.19566 0.033544 -0.074739 -0.13686 -0.19062 -0.61536 -0.14881 -0.36797 -0.3022 0.54372 -0.079441 0.079224 0.086364 -0.27676 -0.1002 -0.31808 -0.064721 -0.58477 -0.42446 -0.60199 -0.095704 0.12914 -0.048578 -0.55985 -0.22106 -0.018198 -0.40983 0.19134 -0.16737 0.029937 -0.27535 0.30883 0.047673 -0.39279 0.39738 -0.019297 0.31183 0.18436 -0.092606 0.11682 0.51386 -0.10857 -0.073304 -0.033264 0.12858 -0.1515 0.087775 -0.21012 0.044996 0.36456 -0.092157 0.096075 -0.21384 0.15882 0.26957 0.65356 -0.00030041 -0.37243 0.13283 0.41036 
62sZM 0.90961 -0.72274 -0.19211 0.37013 -0.59926 0.37517 -0.043931 0.57152 0.11852 0.11747 0.13862 0.209 0.27369 -0.017712 -0.019713 -0.67687 -0.21191 -0.098361 -0.14792 0.2824 -0.31923 0.31031 -0.12197 0.30924 -0.4662 -0.25961 0.28794 0.037588 -0.78138 0.6 0.35135 0.14405 0.3987 -0.2052 0.36369 -0.029003 0.16399 -0.074952 -0.24194 -0.057778 0.13353 -0.039844 -0.054019 -0.25234 -0.35939 -0.75443 -0.26442 -0.43999 -0.65143 0.30572 0.081261 0.034587 0.043802 -0.59929 -0.2772 -0.62906 0.060977 -0.85312 -0.014064 -0.55891 -0.30574 -0.22788 -0.36546 -0.28088 -0.058669 0.16736 -0.76214 0.28637 -0.22224 -0.62198 0.073669 0.30466 -0.071986 -0.2649 -0.038056 0.27032 0.27644 0.051695 -0.17982 -0.067979 0.85055 -0.14362 0.31338 -0.30776 0.17545 0.12745 0.33953 -0.22399 0.25241 0.12171 -0.40285 -0.17144 -0.42779 0.40645 0.57143 0.71752 0.1859 -0.99558 0.31072 0.19621 
63KbE 0.359 -0.37202 -0.51889 0.6934 -0.81156 0.1931 -0.18036 0.50265 0.37402 -0.34901 0.34898 0.013267 -0.18798 0.3635 0.16628 -0.27892 -0.032999 -0.40984 -0.078118 -0.022782 -0.35925 0.64774 -0.13831 0.034459 0.42672 -0.041086 0.74091 -0.50425 -0.22529 -0.67264 -0.039927 0.18117 0.14028 -0.14786 -0.053743 0.12542 -0.72851 0.070676 -0.4021 0.21213 -0.12358 0.18513 -0.29646 0.60952 -0.41047 -1.2529 0.22072 -0.099612 -1.0681 -0.17006 0.085973 -0.0769 -0.49142 -0.40727 -0.34254 -0.61571 -0.42329 -0.082591 0.20493 -0.071478 -0.35281 -0.074915 -0.026189 -0.51804 -0.24863 -0.46676 -0.39248 -0.0077054 0.1943 0.055052 -0.69514 0.96037 -0.019271 0.1241 0.09476 0.10403 -0.17061 0.17075 -0.58597 0.24653 0.73369 -0.32856 -0.20904 0.22929 0.63039 0.018791 -0.042331 -0.6668 0.46106 -0.094926 -0.022514 -0.24353 -0.63383 0.5153 1.3091 0.17325 0.56362 -0.30168 -0.17319 0.61787 
63E_G 0.3377 -0.53917 -0.33585 0.39337 -0.81109 0.33039 -0.073708 0.16978 0.23561 -0.18479 0.38875 0.429 -0.41643 0.4581 -0.31868 -0.19171 -0.13718 0.4093 0.014473 0.033363 -0.15344 0.31073 -0.11727 0.25021 0.24395 -0.20868 0.50823 -0.57593 -0.11437 -0.22964 0.14341 -0.14237 -0.10754 0.051203 -0.27219 0.007806 -0.70739 -0.18715 -0.016542 0.22701 0.28087 0.48076 0.17053 0.38102 -0.53156 -1.1651 0.52077 -0.20845 -0.61626 -0.15445 0.24067 -0.22289 -0.27937 -0.6878 -0.28391 -0.01861 -0.30633 -0.18323 0.33992 0.067239 -0.5588 -0.067606 -0.22569 -0.20604 0.14338 -0.16903 -0.32467 -0.18082 0.35941 -0.29941 0.083926 0.49324 0.032717 0.038226 -0.012567 -0.044121 -0.12946 0.02144 -0.70443 0.013672 0.79165 -0.35475 -0.25071 0.41846 0.69797 0.31556 0.012131 -0.43162 0.27151 -0.33717 -0.086883 -0.26775 -0.3564 0.67161 0.89022 -0.50742 0.71951 -0.23877 -0.027268 0.48269 
6EQIo 0.81634 -0.74704 -0.39962 0.53003 -0.81933 0.38605 0.0061873 0.83722 0.21918 0.077519 0.29016 0.14417 0.22417 -0.24396 0.19578 -0.76059 -0.20431 -0.10831 -0.07223 0.2195 -0.31673 0.38129 -0.27367 0.36271 -0.29368 -0.25271 0.26747 0.046788 -0.84181 0.37095 0.14847 0.28906 0.3949 -0.3622 0.33599 -0.17169 0.07893 0.11683 -0.24644 0.012792 0.059802 0.070483 -0.097217 -0.17532 -0.39593 -0.89136 -0.11062 -0.51116 -0.64493 0.48597 0.018794 0.0052203 -0.018914 -0.43713 -0.15419 -0.59445 -0.040248 -0.96688 -0.29023 -0.56681 -0.37118 -0.12629 -0.26999 -0.36924 -0.17102 0.099633 -0.66762 0.38268 -0.358 -0.44195 -0.25611 0.55031 -0.006347 -0.4481 0.2671 0.19806 0.32679 0.1951 -0.21623 -0.00034238 0.97115 -0.14214 0.072865 -0.10693 0.27061 -0.051257 0.25702 -0.46819 0.29227 0.30797 -0.24482 -0.0046675 -0.47131 0.29904 0.63676 0.87245 0.14271 -0.95267 0.088332 0.36557 
69rKo 0.58487 -0.65211 0.42127 0.86322 -1.0441 -0.23313 -0.16134 -0.23898 0.11712 -0.14854 -0.11629 0.55275 -0.32931 0.014807 0.073444 -0.2453 0.5664 0.33102 0.67828 0.17857 0.36846 0.029905 -0.22747 0.55621 -0.078561 -0.28104 0.79194 -0.58853 -0.18262 -0.12243 -0.40211 -0.16442 -0.19857 0.051958 -0.17877 -0.33359 0.47881 -0.28782 -0.010091 0.40332 -0.12534 0.54066 0.3202 -0.4869 -0.61462 -0.72031 0.10001 -0.065557 -0.026112 0.66339 0.28347 -0.25631 0.99222 -0.12799 -0.2511 -0.4612 -0.18819 -0.61746 -0.41765 -0.77731 0.2962 -0.26255 -0.12158 -0.5696 -0.092439 -0.27693 -0.50072 0.21283 0.16329 0.055643 0.35834 0.106 -0.041708 -0.27765 0.55921 -0.45125 0.3427 -0.13082 -0.7241 0.39785 0.82776 -0.56774 -0.028337 0.2295 0.14514 0.17339 0.053788 -0.16971 -0.28091 0.39977 0.1768 -0.10613 -0.090351 0.42395 0.24473 0.068079 -0.17339 -0.20967 0.13607 0.34063 
65z2e 0.40534 -0.65463 0.13706 1.1116 -0.77483 -0.24256 -0.073522 -0.31906 0.1522 -0.12676 0.0095748 0.40388 -0.19296 0.003905 -0.19498 -0.28206 0.32245 0.54534 0.6153 0.23576 0.45808 0.079225 -0.1481 0.44946 -0.17445 -0.36296 0.74312 -0.68849 -0.15459 -0.025583 -0.40274 -0.16981 -0.18094 -0.13896 -0.22947 -0.29837 0.16398 -0.3975 -0.14838 0.43025 -0.007965 0.49128 0.4349 -0.37209 -0.65785 -0.69296 0.2588 -0.091895 -0.15912 0.43668 0.16 -0.27001 0.77292 -0.27797 -0.35711 -0.17531 -0.30959 -0.48964 -0.24133 -0.51992 0.014491 -0.29489 -0.050775 -0.1398 0.093891 -0.2141 -0.18082 0.10248 0.073496 -0.19216 0.38434 0.043173 -0.30818 -0.071415 0.30191 -0.50753 0.27113 -0.20694 -0.60888 0.22395 0.80799 -0.54245 -0.024226 0.25957 0.14747 0.30441 -0.056321 -0.1678 -0.40904 0.077846 0.14261 -0.12526 -0.018903 0.49928 0.47922 0.1459 -0.11146 -0.5399 0.016211 0.40959 
640Hy 0.39393 -0.63558 -0.62959 0.31172 -0.69659 0.055215 -0.16976 0.21137 -0.29402 0.59452 -0.056475 -0.71549 -0.16439 -0.17236 -0.42007 -0.70205 0.11776 0.23193 0.20533 -0.14765 0.33941 0.51313 -0.33941 0.181 -0.18202 -0.34746 0.62203 -0.54392 -0.20275 0.043415 -1.0586 0.08638 0.063633 -0.11222 -0.80117 -0.44043 -0.50718 -0.24292 -0.50355 1.0699 -0.16156 0.22887 0.41142 0.22709 -0.52276 -0.74375 0.32146 -0.020661 -0.78442 0.026412 0.18346 0.062696 -0.32142 -0.35058 -0.3074 0.35081 -0.12724 -0.31869 -0.7217 -0.1349 -0.070959 -0.16332 -0.24265 -0.60454 -0.0096871 0.073693 0.071178 0.20473 -0.23154 -0.061184 -0.1078 -0.083579 0.12947 -0.025814 0.56822 -0.75582 0.25161 -0.021617 -0.17163 0.1801 1.0049 -0.41333 -0.16249 0.29263 -0.16499 0.44013 0.2087 -0.18736 -0.32618 -0.4686 -0.019843 -0.34296 0.35604 0.53477 0.92347 -0.076055 -0.029049 -0.35928 0.014238 0.32164 
6EojS 0.52377 -0.42691 -0.40636 0.4102 -0.94472 0.34942 -0.036811 0.69086 0.463 -0.21108 0.4717 0.17493 -0.24462 0.3586 0.15718 -0.4136 -0.09138 -0.31439 -0.22262 -0.043277 -0.5789 0.71727 -0.17262 0.099032 0.4951 -0.17337 0.55271 -0.44232 -0.25008 -0.51982 0.036094 0.011754 0.16167 -0.12276 -0.039989 0.10258 -0.89519 0.13245 -0.45706 0.23891 -0.045444 0.090897 -0.13501 0.58803 -0.35451 -1.3808 0.2272 -0.22278 -1.1802 -0.16672 0.062732 0.047266 -0.53429 -0.58257 -0.37931 -0.35867 -0.33965 -0.18303 0.287 -0.16021 -0.61526 -0.071914 -0.038709 -0.52398 -0.14843 -0.2957 -0.5066 0.071336 0.29655 0.083238 -0.46653 0.87666 -2.7543e-05 -0.033595 0.072554 0.13643 -0.1435 0.31879 -0.57521 0.21512 0.66251 -0.25023 -0.37898 0.30183 0.76329 0.017674 0.012323 -0.57947 0.43987 -0.10205 -0.11869 -0.32476 -0.56812 0.48104 1.2262 0.0052684 0.70196 -0.28352 -0.1426 0.65352 
60COa 0.42986 -0.4627 -0.59547 0.21841 -0.54975 0.11944 -0.14078 0.199 -0.27575 0.47493 -0.068782 -0.79006 -0.08466 -0.30242 -0.32082 -0.80635 0.08471 0.087479 0.10904 -0.22859 0.19544 0.45585 -0.36383 0.013691 -0.16666 -0.32538 0.51807 -0.46847 -0.20673 0.024769 -1.0012 -0.085264 0.13506 -0.14016 -0.64564 -0.37999 -0.43659 -0.21582 -0.53436 1.0431 -0.33227 0.073736 0.38694 0.08569 -0.38749 -0.72356 0.11245 -0.086513 -0.88349 0.040861 0.069679 0.10922 -0.24476 -0.44656 -0.31117 0.33197 -0.09695 -0.13354 -0.79258 -0.27451 0.05528 -0.15459 -0.19371 -0.636 0.056611 -0.10615 0.029173 0.3139 -0.26105 0.042286 -0.061259 -0.098008 -0.0043717 -0.016073 0.45795 -0.6528 0.23935 -0.0051144 -0.025105 0.28101 0.84964 -0.2974 -0.11555 0.11584 -0.11937 0.44624 0.17235 -0.031457 -0.46621 -0.37035 -0.068094 -0.35609 0.39209 0.47414 0.76468 0.18123 -0.15414 -0.46546 0.2672 0.3128 
5_p-4 0.42804 -0.41436 0.81787 0.29219 -0.49616 -0.077597 -0.64166 -0.22146 0.060653 -0.55728 0.049357 -0.12547 -0.30866 0.17721 0.00092898 -0.57046 -0.099217 -0.38451 0.29603 0.23854 -0.57688 0.11343 0.46469 -0.32464 -0.10131 -0.38354 0.77129 -0.61285 -0.25066 0.21995 -0.34745 -0.57993 0.016956 0.4033 -0.079093 0.26545 0.2549 -0.06492 -0.27283 0.6596 -0.42296 0.245 0.21017 -0.1307 -0.72896 -0.3433 0.16837 0.16193 -0.55468 -0.4921 0.24373 -0.37762 0.31512 -0.93891 -0.43711 -0.56359 -0.45446 0.18023 -0.074842 -0.51656 0.37667 -0.64052 -0.45899 -0.3034 0.58676 -0.63381 -0.91404 0.057526 0.21854 -0.038931 0.75261 0.17488 -0.053317 0.52005 -0.70749 -0.16567 0.26003 -0.22802 -0.14569 0.43267 0.87937 -0.36045 0.48146 -0.083076 -0.0094539 0.34724 0.022968 -0.11887 0.51351 -0.042947 -0.39051 -0.55676 -0.19195 0.3946 0.14297 -0.056577 -0.21201 -0.24463 0.88364 0.01476 
6Ay8M 0.39748 -0.51998 -0.32448 0.51243 -0.921 0.30913 -0.11226 0.31 0.37284 -0.21896 0.39463 0.29858 -0.36726 0.4531 -0.18284 -0.27242 -0.094194 0.21062 -0.017023 0.07049 -0.21523 0.51192 -0.12662 0.14917 0.44365 -0.24809 0.54616 -0.60567 -0.16597 -0.34388 0.072427 -0.10454 -0.042496 -0.09426 -0.13379 0.019267 -0.78239 -0.17391 -0.25901 0.22962 0.064896 0.33814 0.043894 0.44956 -0.45455 -1.1815 0.42155 -0.2407 -0.84539 -0.10667 0.15073 -0.064078 -0.28495 -0.67257 -0.30879 -0.05636 -0.30876 -0.18313 0.32962 -0.066394 -0.60878 -0.047679 -0.095521 -0.24625 0.075314 -0.24914 -0.31389 -0.085854 0.40735 -0.1597 -0.17229 0.62612 -0.03823 0.083936 0.061693 0.023973 -0.042024 0.057702 -0.68895 0.10722 0.7494 -0.38573 -0.3298 0.42516 0.70739 0.20721 -0.018392 -0.37192 0.2622 -0.20213 -0.098931 -0.27751 -0.39998 0.5947 1.0767 -0.3061 0.65652 -0.3311 -0.17092 0.57424 
5_394 0.61625 -0.64509 -0.24452 0.45831 -0.41764 0.29588 -0.085125 0.45313 0.084017 -0.016762 0.18103 0.075213 0.32682 -0.020902 -0.0027706 -0.70563 -0.46435 0.044098 -0.044088 0.15688 -0.15072 0.24836 -0.14012 0.22546 -0.55225 -0.33416 0.25983 0.020407 -0.5903 0.6837 0.1885 0.048666 0.38918 -0.24669 0.39112 -0.1199 0.28635 -0.010789 -0.33107 0.1758 0.20148 0.029313 0.062584 -0.17351 -0.461 -0.59078 -0.07032 -0.3122 -0.4899 0.22897 0.18206 -0.12616 0.033866 -0.39292 -0.19883 -0.45654 -0.0029184 -0.64815 -0.21584 -0.41622 -0.32449 -0.32724 -0.39673 -0.007203 0.10306 0.055986 -0.58777 0.33219 -0.2667 -0.72092 0.2054 0.19967 -0.047451 -0.17144 -0.1197 0.15595 0.22216 -0.016812 -0.20397 -0.11541 0.88785 -0.10007 0.32442 -0.30643 0.21563 0.1286 0.16358 -0.32105 0.1579 0.020751 -0.27106 -0.040839 -0.33931 0.33177 0.3761 0.57833 0.039487 -0.97047 0.26498 0.07815 
6ENss 0.94039 -0.80789 -0.37583 0.52426 -0.82998 0.36209 -0.028793 0.73 0.20032 0.074241 0.25618 0.26397 0.2626 -0.15041 0.13167 -0.67097 -0.20176 -0.083544 -0.079772 0.33745 -0.29585 0.3525 -0.24752 0.40484 -0.44498 -0.28088 0.10789 0.020823 -0.79452 0.45269 0.24739 0.30675 0.39228 -0.28705 0.3987 -0.15047 0.13149 0.10184 -0.35408 -0.014523 0.10929 0.087232 -0.084634 -0.22466 -0.37262 -0.80711 -0.086448 -0.47026 -0.6153 0.41015 0.031216 0.043463 0.047617 -0.41012 -0.16733 -0.55229 0.0012254 -0.92149 -0.16751 -0.53548 -0.34072 -0.18839 -0.36146 -0.31493 -0.15305 0.19283 -0.76853 0.43028 -0.30554 -0.53315 -0.21763 0.56759 -0.02971 -0.45829 0.24842 0.13683 0.26948 0.15155 -0.21425 0.0054404 0.87601 -0.13976 0.081311 -0.026861 0.18225 -0.017576 0.35901 -0.49843 0.33022 0.20342 -0.23692 -0.082291 -0.42906 0.27983 0.61287 0.79116 0.16683 -0.96598 0.093006 0.30952 
5zvvQ 0.26594 -0.11119 0.50318 0.084938 -0.62373 0.32292 -0.03444 0.37951 0.045153 -0.11725 0.86856 0.17096 -0.28722 -0.13956 0.42226 -0.39669 -0.37007 -0.20655 -0.44082 -0.49164 -0.77734 0.53308 0.44508 -0.048047 -0.17166 -0.56352 0.5279 0.36312 0.13555 0.064026 -0.32788 -0.86632 0.39071 0.20521 -0.27185 0.054031 -0.0049632 -0.15365 -0.3313 0.2746 0.12806 -0.39281 0.63505 0.093528 -0.68724 -0.92574 0.15666 -0.21375 -1.078 0.41218 0.19851 0.1849 0.10677 -0.13371 -0.34355 -0.31148 0.044158 -0.39961 -0.52043 -0.39796 -0.60776 -0.19927 -0.10468 -0.47186 -0.040345 -0.22632 -0.3974 0.35041 -0.045878 0.41892 0.86277 0.2832 -0.0078674 -0.19578 0.11031 -0.24686 -0.17599 0.14236 -0.20013 0.16382 0.80536 -0.097651 -0.21452 0.12838 0.91897 0.12342 0.28672 -0.63221 0.059248 0.088617 -0.24766 -0.20858 0.1579 0.096715 0.31712 -0.78284 0.026174 0.19631 0.55909 0.20907 
628AI 0.46028 -0.74374 0.10944 1.0655 -0.78216 -0.24386 -0.059741 -0.31259 0.12006 -0.067941 -0.099361 0.5057 -0.14014 0.13443 -0.28202 -0.27836 0.27851 0.60946 0.61961 0.31442 0.48777 0.083714 -0.17894 0.53257 -0.32274 -0.35693 0.76348 -0.68419 -0.19722 0.14914 -0.29731 -0.089296 -0.1609 -0.035867 -0.25843 -0.26207 0.18611 -0.43176 -0.036569 0.46805 0.17191 0.5546 0.38961 -0.34522 -0.66875 -0.70458 0.24847 -0.1431 -0.11569 0.38539 0.21234 -0.33223 0.73038 -0.37282 -0.35375 -0.25342 -0.30524 -0.63663 -0.14217 -0.51416 0.010834 -0.40425 -0.11993 -0.094992 0.077366 -0.098666 -0.29239 0.041147 0.053457 -0.43469 0.47713 -0.077957 -0.24136 -0.050547 0.21414 -0.50039 0.27841 -0.2591 -0.67495 0.13074 0.88528 -0.51408 0.084302 0.15829 0.17025 0.39167 -0.010095 -0.22393 -0.33936 0.0023685 0.08647 -0.11363 -0.10944 0.59999 0.45307 0.12893 0.021195 -0.62682 0.098114 0.36569 
625lc 0.4082 -0.66042 0.24676 1.0493 -0.81526 -0.33948 -0.16316 -0.32426 0.16994 -0.061455 -0.14763 0.48985 -0.18045 0.19645 -0.29449 -0.30819 0.30028 0.57287 0.68286 0.40498 0.39794 0.091547 -0.11831 0.48852 -0.2419 -0.39947 0.70277 -0.7345 -0.24438 0.16385 -0.21197 -0.049429 -0.18014 0.010911 -0.24003 -0.16522 0.19426 -0.38898 -0.048105 0.41471 0.07502 0.54454 0.38328 -0.28467 -0.67785 -0.613 0.27452 -0.13203 -0.11495 0.31374 0.21634 -0.36758 0.75033 -0.51948 -0.3835 -0.27226 -0.43742 -0.55575 -0.036868 -0.50031 -0.043458 -0.4301 -0.11835 -0.11946 0.15542 -0.13411 -0.36684 0.0053655 0.094491 -0.32152 0.49075 -0.081325 -0.23351 -0.031379 0.10405 -0.48983 0.357 -0.23363 -0.58214 0.10331 0.87728 -0.52606 0.16495 0.18047 0.13368 0.3355 -0.033438 -0.14972 -0.18961 0.025485 0.057087 -0.085206 -0.086215 0.56915 0.3314 0.12473 -0.047551 -0.57216 0.045828 0.35821 
6DabS 0.68913 -0.76368 0.30947 1.0134 -1.1806 -0.14896 -0.28814 -0.22004 0.1234 -0.23104 -0.11262 0.69604 -0.43772 0.044279 0.043906 -0.096243 0.45673 0.36151 0.63667 0.20604 0.42894 0.077609 -0.29991 0.71136 -0.14928 -0.3659 0.79497 -0.56654 -0.092504 -0.12334 -0.36799 0.0016343 -0.20976 0.10626 -0.12076 -0.25137 0.45536 -0.31416 0.020866 0.31906 -0.1064 0.69057 0.26674 -0.44921 -0.56085 -0.87503 0.18114 -0.13319 0.023373 0.88029 0.17582 -0.1259 1.0028 -0.012653 -0.26572 -0.56057 -0.21278 -0.67088 -0.39788 -0.82846 0.28676 -0.11974 -0.14531 -0.54144 -0.24922 -0.28598 -0.50884 0.19464 0.18786 0.010844 0.14753 0.24596 0.015569 -0.333 0.81852 -0.43615 0.29027 -0.14548 -0.79652 0.4768 0.95352 -0.61711 -0.085814 0.29903 0.36328 0.15951 0.056973 -0.17959 -0.27733 0.44426 0.2727 -0.065728 -0.14112 0.56516 0.34441 0.064494 -0.11343 -0.24415 0.10194 0.42239 
68zBM 0.48401 -0.10033 0.34118 -0.016016 -0.22152 0.13623 -0.31338 0.12186 0.01967 0.06226 0.38446 -0.25639 -0.25643 0.049317 0.013645 -0.28845 -0.14497 -0.28754 -0.3042 0.061953 -0.53292 0.4228 0.4591 -0.22144 0.19747 -0.57017 0.25235 0.10334 -0.1244 0.38412 0.074817 -0.23025 0.2714 -0.051823 -0.036435 0.11269 -0.11962 -0.30438 -0.45906 -0.1253 -0.39675 -0.34931 0.18087 0.09868 -0.3253 -0.25592 -0.16402 -0.036294 -0.7092 0.077255 -0.10819 0.52688 0.077706 -0.47656 -0.42898 -0.07439 0.15765 -0.19834 0.051257 -0.44863 -0.28378 -0.047184 -0.24365 -0.065455 0.088866 -0.15969 -0.29109 0.008626 0.057055 0.17591 0.2134 0.10241 -0.19863 0.0075928 0.012274 0.049554 0.13353 -0.02896 0.23909 0.19292 0.49293 -0.22406 0.015114 -0.0037465 0.18953 0.1654 0.56406 0.3372 0.17981 0.14993 -0.63377 -0.45512 0.063695 0.23673 0.44636 -0.14029 -0.37899 -0.3817 0.24882 -0.018099 
60E5y 0.56922 -0.4484 -0.58485 0.215 -0.62886 0.003521 -0.18643 0.2607 -0.22603 0.45869 -0.32183 -0.74985 -2.0611e-05 -0.36318 -0.16904 -0.87073 0.31379 -0.17732 0.19127 -0.12174 -0.00064997 0.51123 -0.47674 -0.069702 -0.15612 -0.25633 0.46654 -0.52521 -0.33454 -0.16865 -0.93588 0.0044462 0.19115 -0.053919 -0.39254 -0.27687 -0.26832 -0.14492 -0.62616 1.0873 -0.56764 0.03105 0.18851 -0.063661 -0.28068 -0.68894 -0.046633 -0.11985 -0.96336 0.1147 0.025861 0.17839 -0.11209 -0.4565 -0.17848 0.13574 -0.11348 0.014614 -0.78741 -0.4554 0.25475 -0.040722 -0.19142 -0.91 -0.010142 -0.11487 -0.25528 0.39649 -0.2184 0.18091 -0.26974 0.038599 0.070576 0.040086 0.52094 -0.61463 0.30693 0.0080511 0.026566 0.44625 0.69675 -0.30727 -0.0052099 0.10395 -0.35734 0.34311 0.095136 -0.077838 -0.33217 -0.15614 0.039189 -0.33172 0.36073 0.38477 0.6429 0.54517 -0.20807 -0.46138 0.43197 0.30524 
6EI-M 1.0071 -0.83386 -0.27892 0.50212 -0.7643 0.35361 -0.18405 0.60107 0.12577 0.081052 0.15032 0.21966 0.30186 -0.068115 0.032887 -0.65973 -0.18913 -0.1438 -0.079522 0.40125 -0.30597 0.333 -0.1331 0.3502 -0.51589 -0.25928 0.13041 -0.054702 -0.80473 0.5242 0.29536 0.28308 0.3818 -0.21881 0.46417 -0.079715 0.14472 0.024794 -0.36418 -0.012834 0.057075 0.093717 -0.090438 -0.26578 -0.34452 -0.70988 -0.1173 -0.40978 -0.61961 0.28497 0.060264 0.043453 0.057609 -0.54721 -0.18598 -0.58419 -0.0011003 -0.79971 -0.018493 -0.47783 -0.26593 -0.1959 -0.41254 -0.26344 -0.04784 0.2067 -0.82826 0.41249 -0.22077 -0.56865 -0.1421 0.53126 -0.02298 -0.33676 0.099389 0.18578 0.31268 0.094529 -0.19311 0.030218 0.83961 -0.176 0.22593 -0.076589 0.047789 0.058997 0.3865 -0.33711 0.36655 0.1251 -0.2767 -0.20377 -0.41442 0.32498 0.62157 0.75889 0.16639 -0.9982 0.1651 0.21623 
6EmHC 0.3688 -0.57942 -0.33413 0.56381 -0.81744 0.30913 -0.16428 0.28764 0.32582 -0.21573 0.42997 0.27338 -0.30452 0.44675 -0.19418 -0.30215 -0.14632 0.12391 -0.040223 0.017851 -0.29551 0.4837 -0.042303 0.15486 0.32233 -0.24599 0.58378 -0.58759 -0.14311 -0.36069 0.057732 -0.12727 0.0093423 -0.058484 -0.13645 0.077372 -0.79608 -0.15644 -0.26393 0.27466 0.15389 0.31373 0.093846 0.4194 -0.4728 -1.1914 0.45322 -0.17439 -0.8597 -0.21854 0.17829 -0.094454 -0.34266 -0.67483 -0.31948 -0.086505 -0.32018 -0.093022 0.37135 0.074322 -0.66923 -0.057569 -0.077902 -0.22213 0.10233 -0.23763 -0.3017 -0.092149 0.35835 -0.16355 -0.052472 0.63337 -0.070418 0.13101 -0.015186 0.056696 -0.12124 0.098694 -0.63478 0.11328 0.73714 -0.36635 -0.28655 0.39779 0.68687 0.2592 -0.014764 -0.44571 0.29456 -0.27465 -0.082554 -0.33925 -0.37637 0.59482 1.0665 -0.3428 0.67952 -0.3238 -0.14959 0.51964 
66NA2 0.5951 -0.011345 -0.27753 -0.3805 -0.75468 0.053104 -0.33771 -0.14762 -0.66742 -0.29547 0.046493 -0.013547 -0.17552 0.10299 -0.31254 -0.12048 -0.29908 0.20005 -0.49172 0.22927 -0.17617 0.1992 0.34363 -0.084928 -0.57576 -0.32734 -0.025 0.027635 -0.17475 0.6089 0.079622 -0.18697 0.34449 0.68907 -0.29471 -0.15504 0.27729 -0.016563 0.021186 -0.076565 0.028375 0.31827 0.48949 0.31327 -0.82353 -0.26793 0.43562 -0.15995 -0.8119 -0.089331 0.27266 -0.067825 -0.013191 -0.18783 -0.1264 -0.31636 -0.28799 -0.095959 -0.13434 -0.27368 0.3396 -0.47581 -0.94726 -0.5184 0.075171 -0.10209 -0.66053 0.062696 0.014144 -0.17706 0.13202 0.30809 0.43522 -0.16041 0.03189 -0.73037 -0.038369 -0.41877 0.1463 0.21674 1.053 -0.033623 0.26734 0.58896 0.10373 0.33902 0.66138 -0.61815 0.7921 -0.486 -0.015454 -0.32156 0.23026 0.21836 0.17872 -0.53702 0.079232 0.16641 1.0624 -0.070497 
63i_Q 0.46916 -0.23555 1.0891 0.34285 -0.84777 -0.15616 -0.4604 0.1239 0.4512 -0.42233 0.046043 0.014993 -0.49409 0.2295 0.45913 -0.64356 0.12677 -0.65068 0.44373 0.22869 -0.91957 0.42478 0.21597 -0.25631 0.32205 -0.38077 1.0591 -0.58251 -0.22881 0.19225 -0.12478 -0.36608 0.043873 0.37188 -0.022009 0.37499 0.33877 0.027676 -0.041843 0.53833 -0.66652 0.10278 -0.095348 0.016183 -0.62866 -0.60471 -0.14745 0.19911 -0.45838 -0.087563 0.22844 -0.34295 0.32734 -1.1587 -0.29601 -0.8846 -0.23727 -0.24698 -0.3372 -0.8816 0.23938 -0.53887 -0.415 -0.6403 0.3303 -0.78528 -1.1657 0.046678 0.20478 0.17866 0.47608 0.27828 0.10037 0.19526 -0.48959 0.10696 0.41804 -0.11113 -0.36511 0.40905 1.0204 -0.32677 0.37531 -0.25454 0.14986 0.079061 0.033075 -0.095667 0.76166 0.63795 -0.75177 -0.17481 -0.63984 0.37612 0.069231 0.11457 -0.37325 -0.37003 0.79821 0.21327 
61k32 0.1992 -0.10955 0.4498 -0.01143 -0.66705 0.14682 0.0063186 0.41751 0.036767 -0.037191 0.84052 0.094762 -0.23592 -0.16288 0.30602 -0.44998 -0.48254 -0.10553 -0.50477 -0.38632 -0.80504 0.54405 0.54873 -0.18532 -0.26944 -0.63447 0.4656 0.44186 0.11556 0.19566 -0.30682 -0.79154 0.48141 0.27715 -0.22146 0.096955 0.077031 -0.095104 -0.31149 0.12345 0.17996 -0.43233 0.65919 0.21426 -0.80461 -0.79279 0.23101 -0.26352 -1.0057 0.41892 0.27645 0.16751 0.0060593 -0.17343 -0.1953 -0.32213 0.062902 -0.41199 -0.63372 -0.35059 -0.70624 -0.085393 -0.23283 -0.4872 -0.011042 -0.036096 -0.35733 0.30236 -0.076081 0.23237 0.83137 0.38654 0.07687 -0.095519 0.047498 -0.32819 -0.17674 0.02543 -0.14196 0.010392 0.79145 -0.061165 -0.075787 0.20901 0.75418 0.078007 0.1698 -0.8902 0.26828 -0.038508 -0.26406 -0.065897 0.075804 0.072663 0.30991 -0.75692 0.025189 0.1438 0.56833 0.25328 
675ZG 0.3899 -0.48593 -0.40123 0.43594 -0.87426 0.30757 -0.062852 0.41017 0.41022 -0.29933 0.43627 0.18723 -0.38699 0.46954 -0.12656 -0.33193 -0.20424 0.03588 -0.070026 -0.022326 -0.38214 0.52213 -0.18271 0.067469 0.46406 -0.25907 0.56822 -0.55642 -0.034508 -0.36333 -0.016854 -0.10759 0.029225 -0.048343 -0.15025 0.11521 -0.84975 0.012917 -0.35709 0.35252 0.046853 0.23712 0.014748 0.54081 -0.40497 -1.2596 0.41432 -0.17565 -0.91658 -0.27402 0.092688 -0.026796 -0.45188 -0.63213 -0.31565 -0.12822 -0.28445 -0.046244 0.22467 -0.10766 -0.53783 -0.12655 -0.089529 -0.26931 0.02525 -0.34185 -0.32352 -0.04772 0.37287 -0.15853 -0.22326 0.66615 -0.046127 0.11952 0.01125 0.035094 -0.1742 0.10269 -0.63894 0.16323 0.69831 -0.25802 -0.37141 0.37989 0.77632 0.16264 -0.056123 -0.5153 0.30389 -0.27454 -0.14976 -0.31183 -0.48066 0.62122 1.0624 -0.2456 0.58992 -0.36288 -0.07281 0.58103 
63dOg 0.30708 -0.59173 0.90786 0.1388 -0.6595 -0.047766 -0.66264 -0.20542 0.035414 -0.60452 0.047415 -0.025361 -0.61169 0.25249 -0.27352 -0.42989 -0.065953 -0.079592 0.38495 0.29213 -0.50572 0.014396 0.5806 -0.41717 0.054538 -0.44499 0.85194 -0.65596 -0.23201 0.23319 -0.50183 -0.55998 -0.069187 0.58456 -0.22521 0.27882 0.17311 -0.020169 -0.19011 0.68335 -0.3444 0.44274 0.29132 -0.0085601 -0.7948 -0.36484 0.41914 0.15908 -0.4409 -0.56071 0.22125 -0.36901 0.25347 -0.92687 -0.34868 -0.38614 -0.55238 0.13339 -0.11662 -0.53261 0.38137 -0.60447 -0.48454 -0.37347 0.58345 -0.55298 -0.82406 -0.16531 0.3841 -0.13116 0.72232 0.096456 0.041744 0.67865 -0.63681 -0.27061 0.32193 -0.35597 -0.18463 0.39691 1.0315 -0.42744 0.4379 0.1095 0.042785 0.35729 -0.014678 -0.17687 0.53807 -0.14075 -0.40658 -0.51006 -0.20573 0.59258 0.16557 -0.36209 -0.11621 -0.0883 0.88085 0.053874 
6BIrA 0.43503 -0.437 0.98199 0.23608 -0.59416 -0.1036 -0.63127 -0.14432 0.12482 -0.39481 -0.016893 -0.13557 -0.4362 0.19354 0.036721 -0.58886 0.035387 -0.41044 0.34868 0.24629 -0.61613 0.2606 0.45596 -0.35836 0.10852 -0.49796 0.82949 -0.58442 -0.21058 0.25515 -0.35571 -0.50247 0.026408 0.39674 -0.10925 0.2793 0.25218 -0.14038 -0.27255 0.65851 -0.53189 0.14897 0.19507 -0.070762 -0.65856 -0.30407 0.049802 0.19144 -0.51693 -0.34207 0.1981 -0.18754 0.34673 -0.96483 -0.3669 -0.46452 -0.30482 0.038397 -0.18541 -0.65494 0.29062 -0.56575 -0.42667 -0.42202 0.52978 -0.57009 -0.86674 0.00046598 0.26226 0.048106 0.67971 0.066079 -0.015022 0.49723 -0.52245 -0.12148 0.38118 -0.2654 -0.125 0.43389 0.88694 -0.39306 0.38491 -0.058765 -0.041023 0.30338 0.081055 0.019641 0.49527 0.18378 -0.54043 -0.45849 -0.18795 0.39813 0.1257 -0.10928 -0.34398 -0.26516 0.78418 0.061825 
61k2Q 0.22138 -0.16261 0.43138 -0.056137 -0.66179 0.18812 -0.0084111 0.4625 -0.00027415 0.038331 0.79048 -0.00089159 -0.19417 -0.20442 0.25816 -0.531 -0.50333 -0.10226 -0.51724 -0.36011 -0.76997 0.54624 0.53666 -0.21296 -0.3321 -0.64195 0.42462 0.45316 0.050188 0.30092 -0.34172 -0.74804 0.51764 0.2719 -0.20719 0.070212 0.10241 -0.096353 -0.32066 0.16512 0.16411 -0.46077 0.66112 0.2149 -0.77722 -0.7292 0.20093 -0.27831 -0.98051 0.41522 0.29094 0.1978 -0.03953 -0.20872 -0.15439 -0.28014 0.095054 -0.43067 -0.70796 -0.34015 -0.71215 -0.066807 -0.28683 -0.49455 0.029023 0.028448 -0.36064 0.33557 -0.11232 0.16983 0.82064 0.33691 0.10556 -0.062416 0.033355 -0.31176 -0.11003 -0.016733 -0.076786 -0.017719 0.82336 -0.046819 -0.023114 0.16867 0.65159 0.095667 0.19119 -0.86068 0.26494 -0.062215 -0.3012 -0.043302 0.10855 0.069526 0.30199 -0.69481 0.0028454 0.064249 0.60132 0.22161 
6F3pC 0.38453 -0.52413 0.95622 0.29348 -0.58311 -0.072321 -0.60222 -0.15276 0.13914 -0.47472 0.021487 -0.075583 -0.42739 0.19352 -0.086786 -0.60472 -0.027898 -0.23613 0.40639 0.28629 -0.51148 0.10853 0.47936 -0.35973 0.040336 -0.48932 0.80992 -0.631 -0.28529 0.31175 -0.38191 -0.52941 -0.008709 0.3833 -0.079981 0.24363 0.26155 -0.089562 -0.23857 0.64931 -0.43783 0.26039 0.23348 -0.12815 -0.69352 -0.32928 0.14996 0.16536 -0.42358 -0.3993 0.18621 -0.28531 0.35574 -0.97687 -0.36578 -0.41015 -0.39778 0.023076 -0.15963 -0.63421 0.29201 -0.60971 -0.43296 -0.29947 0.60608 -0.56565 -0.83122 -0.028824 0.26099 -0.12032 0.73979 0.055083 -0.090773 0.55199 -0.62811 -0.12378 0.41405 -0.31751 -0.14581 0.38604 0.93592 -0.39331 0.43386 -0.052522 -0.026791 0.33901 -0.0084547 -0.0090618 0.43513 0.096932 -0.50513 -0.43655 -0.21582 0.45262 0.12155 -0.064663 -0.2806 -0.35758 0.78432 0.067214 
61jJY 0.17547 -0.14559 0.42897 0.017252 -0.6512 0.22855 -0.001526 0.42103 0.02153 -0.022003 0.90588 -0.042422 -0.17546 -0.2142 0.18322 -0.56689 -0.607 -0.040057 -0.55966 -0.42867 -0.73583 0.51899 0.57518 -0.2378 -0.34983 -0.66936 0.49022 0.4301 0.080835 0.34479 -0.3705 -0.87612 0.54263 0.22246 -0.21584 0.071902 0.040918 -0.12237 -0.32225 0.17086 0.15039 -0.46778 0.76738 0.19697 -0.83016 -0.83803 0.22466 -0.31524 -1.0128 0.43096 0.25586 0.14775 -0.039821 -0.28497 -0.20898 -0.28989 0.063231 -0.39746 -0.74374 -0.33496 -0.7569 -0.079096 -0.27025 -0.41465 0.10148 -0.04722 -0.26706 0.35663 -0.11535 0.1291 0.94884 0.36291 0.011714 -0.03211 -0.059663 -0.33108 -0.10604 -0.032538 -0.12374 -0.024418 0.88921 -0.047184 0.014593 0.15778 0.76537 0.14382 0.14721 -0.84834 0.1454 -0.15511 -0.33322 -0.071156 0.10524 0.14388 0.37727 -0.73045 -0.02255 -0.050616 0.65385 0.30534 
69mSm 0.52113 -0.67789 0.36238 1.0453 -1.0069 -0.26368 -0.20088 -0.35311 0.19831 -0.24038 -0.081882 0.58687 -0.38753 0.11691 -0.047485 -0.14701 0.42593 0.37947 0.72029 0.2677 0.4246 0.057832 -0.26476 0.57682 -0.061796 -0.34473 0.74524 -0.67103 -0.059591 -0.12525 -0.35457 -0.087276 -0.22508 0.016718 -0.18091 -0.23187 0.3528 -0.33767 -0.070673 0.43115 -0.13113 0.59667 0.29036 -0.37609 -0.60979 -0.71098 0.20895 -0.04429 0.046699 0.57338 0.18148 -0.21818 0.94864 -0.19128 -0.32858 -0.40019 -0.27702 -0.49262 -0.31964 -0.73157 0.23512 -0.27484 -0.11706 -0.30983 -0.048395 -0.32172 -0.41114 0.1608 0.20574 -0.076137 0.26952 0.15587 -0.14789 -0.17205 0.50269 -0.49379 0.28702 -0.18241 -0.72985 0.38673 0.82 -0.56243 -0.0449 0.25702 0.23793 0.19784 -0.0090256 -0.16843 -0.30592 0.24498 0.17273 -0.10457 -0.12251 0.51761 0.30484 0.072567 -0.19242 -0.37488 0.056717 0.42291 
6FB7o 0.53625 -0.24148 1.091 0.28464 -0.82398 -0.202 -0.44168 -0.0018868 0.38287 -0.34028 -0.04993 0.063743 -0.44908 0.21602 0.33832 -0.64256 0.18061 -0.49076 0.45745 0.31552 -0.77304 0.38515 0.20684 -0.21086 0.21525 -0.41681 0.91718 -0.61727 -0.25943 0.30191 -0.14376 -0.39737 0.015586 0.39846 -0.0491 0.27969 0.38926 -0.040083 -0.093776 0.57404 -0.63292 0.12734 -0.0054189 -0.080508 -0.62414 -0.47495 -0.14131 0.17503 -0.42899 -0.10037 0.25103 -0.34855 0.43843 -1.1654 -0.33889 -0.74654 -0.26146 -0.24865 -0.27189 -0.8971 0.29485 -0.59967 -0.45462 -0.59058 0.39035 -0.67105 -1.1861 0.094188 0.23347 0.11827 0.58208 0.13594 0.078064 0.18147 -0.50136 -0.01639 0.47027 -0.14551 -0.30622 0.40105 0.95148 -0.33522 0.39691 -0.22872 0.029429 0.14278 0.071505 0.0082557 0.64194 0.52914 -0.70023 -0.22991 -0.48759 0.3444 -0.017496 0.11251 -0.38179 -0.37032 0.83124 0.15476 
67st2 0.47023 -0.55748 -0.52191 0.1874 -0.55861 0.028838 -0.25719 0.25122 -0.29185 0.48611 -0.16013 -0.81844 -0.088754 -0.22956 -0.30259 -0.76723 0.14719 -0.1097 0.1177 -0.14307 0.016525 0.55475 -0.25496 -0.060035 -0.14714 -0.37204 0.56398 -0.44039 -0.22565 -0.043209 -1.0026 0.0132 0.2143 -0.028572 -0.54291 -0.24315 -0.37718 -0.19497 -0.68925 1.1011 -0.39011 0.020306 0.29368 0.10798 -0.37913 -0.61447 0.14383 -0.04703 -0.95808 -0.042297 0.086705 0.2354 -0.25754 -0.36182 -0.22714 0.21735 -0.070608 -0.038682 -0.71178 -0.28757 0.054011 -0.09235 -0.21768 -0.72712 0.019595 -0.0090984 -0.084657 0.25785 -0.18075 0.089127 -0.14226 -0.044205 0.10365 0.16899 0.49659 -0.63119 0.24138 -0.041405 0.029565 0.34266 0.80831 -0.34093 -0.052665 0.19362 -0.26868 0.38086 0.17086 -0.15285 -0.2401 -0.32958 -0.058688 -0.42906 0.38581 0.43626 0.77561 0.14444 -0.18214 -0.37893 0.27389 0.20827 
5-gkQ 0.51216 0.08947 -0.41158 -0.37876 -0.77751 -0.024183 -0.24573 -0.12626 -0.61319 -0.40035 0.082477 -0.095 -0.20595 0.13046 -0.27918 -0.20207 -0.40863 0.29489 -0.44393 0.18781 -0.16418 0.17543 0.27408 -0.18287 -0.55467 -0.43381 -0.026402 0.011976 -0.078738 0.74844 0.028951 -0.19404 0.3765 0.66622 -0.41332 -0.21271 0.27871 0.10413 -0.0011837 0.018126 0.036186 0.29812 0.56567 0.4135 -0.89727 -0.27779 0.4758 -0.11587 -0.78955 -0.14792 0.25446 -0.12083 -0.068269 -0.14995 -0.12765 -0.25644 -0.2782 -0.11852 -0.2913 -0.34294 0.38329 -0.68539 -0.98947 -0.40235 0.10671 -0.25054 -0.57255 0.087489 -0.099241 -0.31897 0.15388 0.20098 0.32824 -0.18281 -0.0070414 -0.81267 -0.03515 -0.5313 0.20325 0.1644 1.1827 0.084904 0.22156 0.58226 0.20213 0.34372 0.66171 -0.76418 0.7937 -0.50802 -0.1636 -0.2178 0.21621 0.23006 0.066455 -0.48522 -0.078204 0.016133 1.1158 -0.083194 
6Ejr6 0.45261 -0.48825 -0.46831 0.46027 -0.92534 0.30852 -0.1061 0.51171 0.4478 -0.32015 0.41567 0.21856 -0.29439 0.44588 0.001475 -0.40015 -0.17176 -0.13554 -0.086863 0.010661 -0.53283 0.57994 -0.19329 0.095155 0.42875 -0.14984 0.5709 -0.60618 -0.18343 -0.4764 0.072121 -0.018867 0.064384 -0.050155 -0.064839 0.15608 -0.86706 0.10254 -0.34635 0.31566 0.021629 0.26119 -0.10557 0.54441 -0.4156 -1.3225 0.39103 -0.17341 -1.0086 -0.33053 0.12262 -0.11885 -0.52985 -0.71694 -0.31525 -0.3233 -0.36983 -0.047728 0.32177 -0.048664 -0.55597 -0.10762 -0.11796 -0.38585 0.011499 -0.33292 -0.52113 0.00097015 0.32881 -0.10784 -0.34076 0.8568 -0.0097744 0.059493 -0.082787 0.10276 -0.17503 0.2167 -0.63912 0.17753 0.72083 -0.26392 -0.30936 0.35341 0.70783 0.12005 -0.051671 -0.63299 0.52022 -0.24081 -0.1122 -0.31953 -0.58836 0.57715 1.1114 -0.075679 0.70617 -0.34029 -0.064537 0.59182 
645Pw 0.57838 -0.39613 -0.47881 0.010402 -0.81053 -0.059225 0.019276 0.55228 -0.17883 0.41302 -0.3126 -0.74927 -0.14013 -0.54844 -0.05689 -1.0274 0.38105 -0.18337 0.18989 -0.14261 -0.19002 0.47225 -0.57367 -0.14609 -0.013408 -0.29573 0.52343 -0.36922 -0.48879 -0.067721 -1.001 -0.03522 0.22625 0.087257 -0.39148 -0.25009 -0.06661 0.041302 -0.39471 0.9924 -0.65275 -0.0038997 0.14393 -0.075892 -0.2892 -0.76125 -0.18862 -0.30257 -0.89956 0.35523 -0.049013 0.21278 -0.094408 -0.50741 -0.053697 0.01887 -0.099909 -0.23003 -1.1001 -0.82609 0.39246 -0.063745 -0.18824 -1.1947 -0.12147 -0.20951 -0.37606 0.32883 -0.35354 0.22816 -0.31244 -0.0079214 0.15799 -0.058477 0.61978 -0.61561 0.40676 -0.034928 0.09161 0.4836 0.77774 -0.2064 0.043673 0.055982 -0.30442 0.1942 0.022711 -0.17196 -0.19726 0.19581 -0.0048928 -0.078721 0.22126 0.32241 0.45234 0.82281 -0.3217 -0.44548 0.70637 0.43458 
5_pFg 0.54167 -0.20405 1.0765 0.44158 -0.64146 -0.1704 -0.58059 -0.23196 0.25111 -0.55593 0.069409 0.057699 -0.31051 0.21767 0.39069 -0.59251 0.010769 -0.55572 0.37218 0.22114 -0.68588 0.25291 0.33066 -0.14838 -0.012208 -0.35144 0.89346 -0.63118 -0.19031 0.22937 -0.15871 -0.54885 0.0050311 0.36305 0.00121 0.27216 0.47532 -0.089887 -0.13955 0.56127 -0.55406 0.19006 0.051716 -0.20266 -0.72247 -0.43738 -0.077583 0.24393 -0.43634 -0.17491 0.32348 -0.47421 0.55302 -1.0578 -0.4733 -0.86646 -0.33395 -0.029523 -0.15529 -0.73142 0.38766 -0.67095 -0.49144 -0.3897 0.4905 -0.81405 -1.1721 0.19006 0.21445 0.12297 0.80348 0.25774 -0.010453 0.20269 -0.66355 -0.055395 0.31693 -0.13573 -0.35189 0.45759 0.91838 -0.377 0.49777 -0.26457 0.083205 0.2301 0.072295 -0.029252 0.58043 0.36782 -0.5239 -0.39996 -0.40659 0.2994 -0.0037414 0.038054 -0.35143 -0.28528 0.89286 0.047681 
6AtGA 0.26471 -0.43384 -0.79592 0.88827 -0.58673 0.22208 -0.36208 0.14969 0.1099 -0.36369 0.3935 -0.076848 -0.016494 0.31032 -0.01883 -0.25294 -0.29131 -0.034231 -0.16783 -0.048142 -0.14333 0.54552 0.012069 0.034592 0.079822 -0.17249 0.64191 -0.42168 -0.08996 -0.51163 0.03896 0.073335 0.15929 -0.23863 -0.066623 0.077646 -0.55067 -0.25507 -0.41011 0.21164 0.12391 0.28122 -0.13098 0.4103 -0.57067 -1.0295 0.44466 -0.16492 -1.0541 -0.099265 0.194 -0.12099 -0.31028 -0.30903 -0.24703 -0.42317 -0.28408 -0.05705 0.14027 0.22796 -0.48261 -0.0097751 -0.085952 -0.18865 -0.12097 -0.33506 -0.15062 0.014865 0.013935 -0.1909 -0.40285 0.87776 -0.072146 0.19124 0.14462 -0.039441 -0.24311 0.0080107 -0.52853 0.14938 0.84015 -0.41163 -0.17156 0.36926 0.62375 0.29009 0.054731 -0.69803 0.32411 -0.28779 0.11003 -0.24053 -0.30036 0.53208 1.1993 -0.11361 0.44525 -0.37899 -0.19187 0.35466 
5-gka 0.57839 0.045686 -0.48981 -0.3551 -0.81997 -0.030756 -0.25134 -0.20458 -0.60048 -0.43816 0.017339 0.036359 -0.19932 0.11564 -0.23354 -0.10675 -0.35282 0.25777 -0.42887 0.27777 -0.099279 0.15092 0.14737 -0.065216 -0.58905 -0.33473 -0.12577 -0.027984 -0.093425 0.59921 0.064347 -0.094883 0.31111 0.66604 -0.41902 -0.21129 0.31016 0.11606 0.00050926 0.060598 0.067471 0.43104 0.38681 0.39562 -0.87665 -0.25539 0.51499 -0.15409 -0.72547 -0.15953 0.29941 -0.24413 -0.024625 -0.14281 -0.14653 -0.35807 -0.33749 -0.095891 -0.24218 -0.307 0.50473 -0.67547 -1.0388 -0.48065 0.018899 -0.21673 -0.70812 0.13643 -0.075877 -0.33696 -0.00018775 0.34555 0.42952 -0.21132 0.030248 -0.86139 -0.11309 -0.45364 0.12069 0.18898 1.0925 0.069674 0.18187 0.61498 0.16733 0.33636 0.62567 -0.86775 0.83447 -0.5817 -0.02617 -0.23424 0.16379 0.20961 0.061502 -0.42892 0.029216 0.12123 1.0899 -0.059178 
5zWm2 0.35121 -0.12724 -0.058594 -0.019002 -0.36105 0.51015 0.21316 0.079806 0.083533 -0.17648 0.51105 0.44164 -0.035441 0.10193 -0.38029 -0.13765 -0.28461 0.3232 -0.37411 -0.18662 -0.11524 -0.078622 0.0085134 0.24147 -0.19059 -0.017483 0.061456 -0.12937 -0.17329 0.24124 0.19117 -0.60336 0.11175 0.0068656 -0.10645 -0.096822 -0.52617 -0.10323 0.072568 -0.068546 0.20263 0.040854 0.57005 -0.080465 -0.23096 -0.92291 0.10896 -0.34487 -0.51291 -0.029247 -0.04206 -0.16457 -0.11255 -0.56954 -0.48389 -0.050855 -0.26774 -0.0023003 0.35079 -0.047776 -0.31257 -0.18201 -0.13387 0.036015 0.27524 -0.19046 -0.14868 0.14029 0.25698 -0.17778 0.64856 0.17403 -0.3237 -0.1929 -0.43218 0.022512 -0.024016 0.12352 -0.26287 -0.04265 0.43034 0.12018 0.024799 -0.025105 0.70641 0.24954 0.11952 -0.0090172 -0.31837 -0.57781 -0.17544 -0.42648 -0.040072 0.42436 0.40333 -0.2396 0.49422 -0.37126 0.49776 0.39114 
61PnY 0.36439 -0.45205 -0.68028 0.38476 -0.50562 0.21284 0.020208 0.4888 0.21513 0.13451 0.3454 -0.15955 0.15502 -0.11765 -0.073982 -0.39269 -0.23991 -0.0093274 -0.078227 -0.023254 -0.18628 0.35051 -0.22243 0.068287 -0.051879 -0.15455 0.11102 -0.05515 -0.36683 -0.10232 -0.111 0.19094 0.26016 -0.41007 0.13166 -0.14836 -0.37402 0.022584 -0.54484 0.082627 -0.089605 -0.10183 0.0013544 0.068895 -0.31027 -0.69079 0.1757 -0.23866 -0.68021 0.1448 -0.065301 0.18023 -0.23886 -0.17786 -0.16413 -0.10175 -0.019506 -0.22986 -0.15283 -0.12607 -0.44323 0.19708 -0.050694 -0.15037 -0.09237 0.068231 -0.1332 0.26676 -0.17225 -0.20454 -0.36111 0.56679 -0.17122 -0.21324 0.24562 -0.063833 0.078777 0.2109 -0.10255 0.011834 0.52492 -0.16107 -0.11733 0.12505 0.12253 -0.052509 0.19433 -0.391 0.0084574 -0.16957 -0.092646 -0.15891 -0.13132 0.30544 0.71907 0.44245 0.091407 -0.6107 -0.2001 0.32985 
6BFgM 0.34576 -0.48558 0.84484 0.20701 -0.60511 -0.11458 -0.624 -0.25011 0.089195 -0.5829 0.0012554 -0.094487 -0.51157 0.24104 -0.18356 -0.46765 -0.030113 -0.21494 0.38813 0.3036 -0.53161 0.070901 0.4729 -0.42116 0.072794 -0.41435 0.79756 -0.71563 -0.19783 0.17244 -0.46539 -0.55946 -0.070464 0.50165 -0.18965 0.27677 0.14469 -0.046496 -0.26096 0.72529 -0.45751 0.35551 0.24386 -0.039035 -0.73792 -0.32922 0.31207 0.17855 -0.48689 -0.57729 0.20155 -0.36637 0.27679 -0.97138 -0.38049 -0.3875 -0.5093 0.23939 -0.096122 -0.54606 0.42017 -0.61431 -0.44712 -0.34907 0.61079 -0.62243 -0.82622 -0.083503 0.35491 -0.059449 0.67541 0.12774 -0.028114 0.63814 -0.65497 -0.27245 0.30458 -0.31849 -0.16843 0.43633 0.9044 -0.39584 0.42195 0.082325 -0.029955 0.33807 -0.037047 -0.13616 0.49863 -0.1192 -0.40045 -0.53623 -0.17702 0.51205 0.14794 -0.19406 -0.19561 -0.17052 0.86652 0.07975 
6EQIy 0.86188 -0.78069 -0.33601 0.49558 -1.0043 0.33729 0.065949 0.96028 0.2578 0.12362 0.22219 0.31745 0.15927 -0.26622 0.28356 -0.758 -0.052398 -0.093556 0.0030885 0.20062 -0.35027 0.38752 -0.37202 0.47039 -0.24231 -0.20095 0.31927 0.056881 -0.91004 0.24617 0.12276 0.32073 0.3396 -0.28739 0.31821 -0.18577 0.14022 0.17566 -0.14296 0.023156 0.072617 0.11842 -0.16348 -0.22187 -0.3902 -1.0116 -0.12257 -0.57574 -0.64274 0.63769 0.047679 -0.029284 0.074636 -0.40829 -0.12153 -0.71305 -0.092222 -1.1159 -0.31462 -0.71607 -0.3351 -0.085947 -0.19406 -0.56857 -0.30778 0.14622 -0.82111 0.39191 -0.3385 -0.35277 -0.29957 0.54253 0.084217 -0.57868 0.40692 0.16444 0.36994 0.27999 -0.32986 0.026004 0.96048 -0.17286 0.028593 -0.098772 0.30751 -0.13225 0.20863 -0.54622 0.31929 0.47221 -0.13447 0.068502 -0.52957 0.29693 0.58373 0.9262 0.2367 -0.79471 0.085963 0.42923 
694Vy 0.35262 -0.14932 0.029911 -0.01452 -0.55923 0.19438 0.1646 0.50567 0.12838 0.064042 0.18706 -0.071455 -0.11211 -0.4117 0.19899 -0.46166 0.062037 -0.16471 -0.10079 0.020158 -0.28978 0.22725 -0.25494 0.072351 0.20064 -0.13784 0.2161 0.14666 -0.53689 0.13989 -0.097482 0.0094873 0.22014 -0.13829 0.00076332 -0.13839 0.14365 0.076869 0.095034 -0.077409 -0.29325 -0.057239 -0.039695 -0.071806 -0.24936 -0.48763 -0.23893 -0.35824 -0.29538 0.51393 -0.089747 0.046832 0.035153 -0.37192 -0.11912 -0.36924 -0.052489 -0.51273 -0.51891 -0.61867 -0.025437 0.097136 -0.15694 -0.53049 -0.11082 -0.16614 -0.39699 0.1337 -0.19905 0.089031 -0.16754 0.27846 0.073941 -0.3288 0.19663 0.033505 0.33262 0.12034 0.062358 0.11807 0.57177 -0.02728 0.013087 -0.14438 0.14578 -0.12698 0.13665 -0.09749 0.12245 0.38054 -0.24082 0.10013 -0.20625 0.093937 0.1416 0.62469 -0.13721 -0.35257 0.35982 0.36045 
625lI 0.49882 -0.58982 0.35823 0.91542 -1.0008 -0.44339 -0.09914 -0.42432 0.074112 -0.074281 -0.25006 0.62154 -0.2448 0.10787 -0.20473 -0.27754 0.51706 0.6243 0.76217 0.45415 0.45688 0.014942 -0.17087 0.57615 -0.27007 -0.33643 0.68149 -0.74472 -0.31362 0.10315 -0.28433 -0.11428 -0.24763 0.14393 -0.36405 -0.30539 0.41294 -0.36636 0.072861 0.42893 0.034709 0.64257 0.42197 -0.40293 -0.80427 -0.55248 0.26451 -0.14187 -0.066217 0.40686 0.32371 -0.50715 0.97802 -0.46724 -0.36999 -0.36861 -0.50299 -0.64183 -0.146 -0.65222 0.2257 -0.51736 -0.21665 -0.38239 0.10067 -0.14229 -0.55523 0.07445 0.10721 -0.18965 0.54638 -0.097019 -0.1017 -0.18072 0.20172 -0.69873 0.41254 -0.23631 -0.60781 0.18678 0.89434 -0.54773 0.15159 0.26481 0.019744 0.30882 0.01461 -0.24069 -0.13586 0.078141 0.17517 -0.089553 -0.010843 0.47104 0.1473 0.10504 -0.075008 -0.30658 0.20804 0.33812 
63MII 0.36931 -0.37258 -0.28046 0.44229 -1.0133 0.22731 -0.0083881 0.55222 0.57756 -0.35325 0.37514 0.30853 -0.40921 0.47487 0.084529 -0.31734 0.0022894 -0.16004 0.042559 0.0049144 -0.48826 0.55249 -0.26178 0.11393 0.6449 -0.066947 0.68667 -0.647 -0.17424 -0.59023 0.0043696 0.014804 -0.033715 -0.025002 -0.12625 0.1522 -0.87653 0.20296 -0.22188 0.28503 -0.073257 0.28773 -0.17669 0.61366 -0.3908 -1.3745 0.33544 -0.13744 -0.88315 -0.26351 0.096737 -0.1941 -0.47176 -0.69397 -0.34658 -0.43519 -0.47721 -0.11292 0.31315 -0.19658 -0.43404 -0.13631 -0.027049 -0.48521 -0.069596 -0.44499 -0.55073 -0.061732 0.42018 0.024721 -0.4238 0.80772 0.027062 0.022998 -0.069646 0.11649 -0.0986 0.24412 -0.74541 0.19873 0.67007 -0.2824 -0.3262 0.29086 0.76113 -0.021156 -0.14745 -0.57716 0.47666 -0.07749 -0.10985 -0.23113 -0.74569 0.59669 1.0705 -0.025501 0.7045 -0.21596 -0.11608 0.7104 
61lmu 0.35779 -0.083596 0.42973 0.153 -0.8037 0.10406 -0.097206 0.40533 0.075368 -0.19542 0.86901 0.25843 -0.4416 -0.044087 0.6321 -0.25066 -0.20156 -0.29905 -0.39742 -0.37213 -0.90679 0.69528 0.4972 -0.02045 0.10349 -0.66628 0.58431 0.39962 0.11125 -0.17938 -0.20524 -0.62391 0.35443 0.183 -0.26612 0.062291 0.10668 -0.11461 -0.43407 0.04321 0.058791 -0.34429 0.43273 0.22691 -0.85568 -0.91158 0.20065 -0.1752 -1.2264 0.53217 0.19531 0.3811 0.27331 0.11926 -0.35169 -0.42803 0.0015814 -0.58097 -0.38788 -0.5894 -0.60832 -0.17354 -0.080431 -0.6257 -0.31973 -0.22115 -0.53192 0.20217 -0.039412 0.60468 0.53461 0.42537 0.10058 -0.36503 0.46452 -0.31776 -0.28312 0.21585 -0.20653 0.29997 0.82472 -0.28575 -0.35503 0.32109 0.94382 -0.035371 0.46781 -0.74481 0.37729 0.40357 -0.15767 -0.19618 0.078198 0.028069 0.40863 -0.75212 -0.026185 0.47538 0.33255 0.18629 
62BLa 0.6641 -0.61478 0.52957 0.75583 -1.1722 -0.26866 -0.045148 -0.27492 0.13908 -0.2637 -0.11523 0.81903 -0.41037 0.099782 0.087587 -0.15284 0.59849 0.42748 0.68004 0.22976 0.33144 -0.057544 -0.19639 0.61821 -0.098927 -0.24777 0.81597 -0.53253 -0.1865 -0.038737 -0.27144 -0.20312 -0.21732 0.20181 -0.19958 -0.33692 0.58588 -0.25382 0.16457 0.23298 -0.028586 0.58233 0.33576 -0.51166 -0.71298 -0.78098 0.09279 -0.083236 0.040819 0.68358 0.30758 -0.35678 1.0995 -0.15645 -0.28642 -0.65782 -0.20452 -0.74838 -0.31407 -0.91468 0.41539 -0.38244 -0.20077 -0.6092 -0.15586 -0.29781 -0.66253 0.16487 0.22115 -0.056486 0.45284 0.11062 -0.044772 -0.38084 0.48086 -0.4677 0.3345 -0.19103 -0.7986 0.38265 0.88075 -0.50888 0.013909 0.21195 0.24544 0.14974 0.10636 -0.27883 -0.17287 0.41034 0.12675 -0.1031 -0.23249 0.48912 0.15358 0.049441 -0.1033 -0.15655 0.30464 0.35299 
61oCC 0.28946 -0.081554 0.37672 -0.064169 -0.67642 0.19684 -0.067604 0.49239 0.038831 -0.016643 0.87187 -0.031325 -0.28172 -0.15269 0.41434 -0.52283 -0.45016 -0.22496 -0.57548 -0.39845 -0.92155 0.68587 0.57059 -0.23903 -0.12404 -0.71341 0.47944 0.44308 0.078728 0.14756 -0.31556 -0.74964 0.51397 0.21085 -0.26367 0.089273 -0.0084451 -0.11363 -0.45158 0.16545 0.084073 -0.50061 0.58215 0.2937 -0.81889 -0.81233 0.17861 -0.25519 -1.2122 0.40314 0.26801 0.31395 -0.039911 -0.17379 -0.25451 -0.27405 0.091436 -0.44618 -0.59981 -0.40446 -0.73881 -0.10416 -0.24102 -0.54122 -0.064914 -0.081832 -0.41304 0.30095 -0.093862 0.34632 0.71554 0.38537 0.10003 -0.11789 0.14653 -0.28976 -0.17742 0.074167 -0.062239 0.097859 0.83136 -0.12594 -0.16707 0.22143 0.78671 0.088297 0.32051 -0.79358 0.32855 0.073849 -0.34071 -0.15727 0.11482 0.052902 0.40345 -0.73853 -0.0183 0.1874 0.52931 0.19716 
6Ejqy 0.41834 -0.47158 -0.46158 0.40918 -0.90989 0.28353 -0.12629 0.41922 0.38268 -0.28252 0.32521 0.22435 -0.29773 0.45129 -0.091994 -0.33938 -0.12302 -0.059996 -0.048577 0.038516 -0.43832 0.51512 -0.18951 0.12161 0.3925 -0.098685 0.52552 -0.64204 -0.18536 -0.4562 0.072938 0.013492 0.020571 -0.0031284 -0.1024 0.12937 -0.842 0.082348 -0.25151 0.29984 0.020967 0.33519 -0.075668 0.52045 -0.39017 -1.2278 0.41968 -0.14796 -0.89666 -0.34399 0.14277 -0.16413 -0.51005 -0.71681 -0.28658 -0.28002 -0.40507 0.010617 0.35897 0.018116 -0.49126 -0.084371 -0.13257 -0.38807 0.036377 -0.29631 -0.4797 -0.034255 0.35631 -0.10877 -0.32313 0.79566 0.031372 0.062814 -0.084436 0.066659 -0.13598 0.18956 -0.60499 0.16253 0.69058 -0.25815 -0.254 0.37085 0.61824 0.14258 -0.05496 -0.55649 0.49864 -0.29508 -0.06778 -0.32065 -0.52787 0.58007 1.0348 -0.12191 0.72149 -0.27167 -0.04397 0.56371 
61qeS 0.33088 -0.075735 0.40531 -0.044446 -0.73649 0.18395 -0.047723 0.53801 0.05718 -0.07759 0.86043 0.084371 -0.37128 -0.15844 0.55661 -0.44203 -0.32757 -0.27519 -0.49354 -0.39571 -0.96619 0.68872 0.51451 -0.14431 0.0098349 -0.68859 0.50052 0.45275 0.039903 0.033394 -0.25653 -0.65257 0.45282 0.19296 -0.27147 0.058515 0.074786 -0.064412 -0.41274 0.094649 0.037603 -0.44802 0.50072 0.24761 -0.81438 -0.83746 0.1398 -0.22355 -1.2055 0.48754 0.20378 0.36688 0.091322 -0.038528 -0.29173 -0.33697 0.067442 -0.57427 -0.55318 -0.54903 -0.66017 -0.14281 -0.16747 -0.62521 -0.20363 -0.1525 -0.50221 0.25304 -0.12016 0.4784 0.59905 0.35853 0.10134 -0.2829 0.31683 -0.27021 -0.1801 0.15059 -0.059762 0.1932 0.86451 -0.17089 -0.25671 0.22826 0.83652 -0.0016986 0.43663 -0.74695 0.39284 0.31822 -0.31716 -0.13945 0.08791 0.017475 0.33709 -0.67093 -0.059119 0.30976 0.48166 0.17355 
6Cuey 0.39665 -0.223 -0.01415 0.018914 -0.69716 0.20201 0.18255 0.59672 0.17112 -0.035863 0.22639 0.17635 -0.22149 -0.2975 0.28816 -0.32957 0.075468 -0.039926 -0.085953 0.048037 -0.24298 0.23077 -0.2775 0.16747 0.28506 -0.18426 0.21437 0.21707 -0.51403 0.08074 0.0081808 0.10405 0.14499 -0.11794 0.028837 -0.17483 0.20166 0.11213 0.11602 -0.16585 -0.13938 0.045254 -0.14744 -0.022884 -0.29121 -0.58717 -0.15418 -0.39605 -0.30176 0.63207 -0.046982 0.067783 0.14526 -0.16275 -0.10744 -0.43378 -0.065716 -0.74854 -0.42405 -0.73431 -0.0557 0.05848 -0.14558 -0.53878 -0.2963 -0.1349 -0.49099 0.080232 -0.15301 0.034277 -0.27987 0.29391 0.16954 -0.43236 0.42316 0.041771 0.26413 0.1324 -0.12145 0.12605 0.60422 -0.10642 -0.13928 -0.036343 0.37144 -0.20433 0.16036 -0.21695 0.21262 0.52572 -0.13738 0.16777 -0.32071 0.11287 0.1868 0.5024 -0.015694 -0.18957 0.21034 0.33863 
6F6Fm 0.5453 -0.21013 1.0857 0.34368 -0.79685 -0.19467 -0.52718 -0.10754 0.35393 -0.44678 -0.027437 0.10388 -0.44109 0.26296 0.37752 -0.55054 0.17989 -0.54031 0.40419 0.33353 -0.74262 0.37753 0.25835 -0.20448 0.25445 -0.38268 0.88108 -0.64005 -0.23315 0.16846 -0.06921 -0.38184 -0.013154 0.38413 -0.012083 0.29811 0.37953 -0.078261 -0.11119 0.48393 -0.64618 0.18138 -0.064962 -0.055057 -0.63344 -0.4375 -0.12385 0.21374 -0.43235 -0.12334 0.26423 -0.35038 0.48362 -1.1117 -0.37584 -0.79027 -0.30258 -0.15123 -0.14317 -0.82469 0.33362 -0.56185 -0.48423 -0.55877 0.38532 -0.71837 -1.1879 0.080475 0.28726 0.16882 0.50663 0.27121 0.085946 0.20265 -0.49184 -0.0078169 0.4151 -0.13505 -0.32733 0.45123 0.89122 -0.39468 0.36875 -0.16238 0.039278 0.1509 0.092957 0.017135 0.68517 0.51061 -0.61455 -0.28603 -0.47818 0.31693 0.044108 0.06241 -0.32618 -0.27588 0.77238 0.13875 
6BjSI 0.54678 -0.50525 -0.4804 0.12112 -0.68254 -0.074424 -0.1314 0.40006 -0.19863 0.52635 -0.40116 -0.79729 -0.068708 -0.37208 -0.14595 -0.99295 0.36182 -0.23303 0.27275 -0.11809 -0.13158 0.53654 -0.50815 -0.12011 -0.13273 -0.3374 0.56473 -0.54319 -0.36628 -0.06564 -1.0299 0.016346 0.23088 0.07218 -0.44977 -0.21482 -0.19236 -0.051385 -0.58988 1.2453 -0.58556 0.0063756 0.19084 -0.039723 -0.28056 -0.68602 -0.08421 -0.10103 -0.9183 0.11017 0.047937 0.18287 -0.17629 -0.50809 -0.093324 0.1291 -0.059228 -0.064651 -0.95415 -0.57245 0.27 -0.11251 -0.22769 -1.0406 -0.0057776 -0.085525 -0.3411 0.33497 -0.2539 0.1434 -0.20837 -0.085896 0.14843 0.12569 0.51664 -0.6202 0.38375 -0.055206 0.053908 0.44091 0.76577 -0.25902 0.058375 0.069579 -0.43653 0.31786 0.020486 -0.1812 -0.20308 -0.04536 -0.073409 -0.23084 0.31908 0.37322 0.53566 0.5871 -0.28251 -0.48511 0.55419 0.28638 
6DEdC 0.52013 -0.16487 0.30355 0.11165 -0.92127 0.20252 -0.022246 0.7793 0.15117 -0.065527 0.79978 0.19214 -0.44721 -0.22731 0.87226 -0.52066 -0.07937 -0.39137 -0.35542 -0.4109 -0.99 0.75391 0.26434 0.086146 0.15933 -0.6905 0.60971 0.4381 -0.097638 -0.14986 -0.28338 -0.47549 0.3988 0.063419 -0.28561 -0.021327 0.16443 0.036129 -0.4213 0.19709 -0.013913 -0.36063 0.27602 0.12704 -0.72723 -1.0642 0.014642 -0.28586 -1.2789 0.78774 0.15062 0.44616 0.30047 0.14414 -0.33036 -0.48423 0.046195 -0.91571 -0.6434 -0.8738 -0.57654 -0.19312 -0.02757 -0.83345 -0.49634 -0.19919 -0.70935 0.32409 -0.23446 0.65332 0.36677 0.30035 0.15094 -0.55653 0.7196 -0.23024 -0.14883 0.32719 -0.20542 0.32862 0.92919 -0.27981 -0.41756 0.18905 0.98529 -0.10492 0.4983 -0.75505 0.36119 0.74978 -0.22837 -0.076791 0.026481 -0.0033759 0.37244 -0.40461 -0.072887 0.37052 0.36546 0.18237 
62UtQ 0.62856 -0.11963 -0.22129 -0.56305 -0.80544 -0.015743 -0.20154 -0.085346 -0.67474 -0.23547 -0.14688 0.075268 -0.25812 0.022665 -0.26184 -0.11545 -0.1334 0.075435 -0.39352 0.25121 -0.184 0.13921 0.10905 -0.013563 -0.59748 -0.23684 -0.025802 0.044825 -0.2156 0.54695 -0.092052 -0.12114 0.30492 0.85061 -0.5089 -0.13452 0.39884 0.10654 0.1351 0.1921 0.088395 0.3986 0.30816 0.2798 -0.78031 -0.29056 0.37805 -0.17008 -0.65809 -0.11575 0.32345 -0.23073 -0.048129 -0.22575 -0.13507 -0.47684 -0.28426 -0.14818 -0.32243 -0.40171 0.5876 -0.56291 -0.99561 -0.84689 -0.1059 -0.082018 -0.85523 0.069082 -0.060099 -0.24129 0.0878 0.24765 0.5894 -0.12596 0.079188 -0.82078 -0.081649 -0.3771 0.15886 0.23769 0.99142 0.066666 0.24182 0.47184 0.017448 0.3344 0.54922 -0.84171 0.83237 -0.54083 -0.014182 -0.2659 0.16211 0.19968 0.0013605 -0.38583 0.14171 0.32562 1.2793 -0.045443 
62zty 0.94645 -0.7828 -0.38352 0.44998 -0.98413 0.28625 0.070142 0.88307 0.26591 0.061224 0.16158 0.38975 0.24287 -0.14942 0.1565 -0.69218 -0.082634 -0.10036 -0.015545 0.31833 -0.42066 0.28698 -0.29056 0.43589 -0.36309 -0.1022 0.25838 0.011993 -0.99363 0.32594 0.30108 0.35109 0.36735 -0.19475 0.39682 -0.10438 0.16113 0.20414 -0.11047 -0.17103 0.11283 0.097881 -0.19795 -0.25634 -0.43776 -0.98255 -0.12625 -0.5464 -0.65953 0.4658 0.052202 -0.09286 0.05502 -0.5338 -0.15943 -0.88189 -0.12335 -1.0352 -0.068141 -0.67327 -0.2726 -0.13133 -0.26703 -0.53411 -0.25845 0.16623 -0.96296 0.34163 -0.31737 -0.52607 -0.23858 0.61596 -0.007869 -0.53638 0.14489 0.19632 0.34037 0.21449 -0.27657 -0.02029 0.94321 -0.14696 0.23448 -0.14626 0.17923 -0.11305 0.29912 -0.62084 0.50234 0.31162 -0.21967 -0.012483 -0.63449 0.36136 0.60229 1.027 0.33287 -0.88698 0.22916 0.39295 
6CpmS 0.33074 0.095882 -0.21012 0.12917 -0.49936 0.15039 0.088217 -0.032609 0.17072 -0.55415 0.34033 0.23847 -0.33337 0.12057 0.066074 0.14456 0.022061 -0.043864 -0.21127 0.011096 -0.012219 0.08619 -0.16919 0.092745 0.49789 -0.051502 0.12274 -0.10512 0.1087 -0.29523 0.073539 -0.053741 -0.00046832 -0.057926 0.0039128 -0.07504 -0.29305 0.12515 -0.10661 -0.28874 -0.21652 0.12335 0.02436 0.25698 -0.21268 -0.5914 0.074462 -0.076284 -0.2788 0.070613 -0.17868 0.1588 0.087797 0.073521 -0.30082 -0.28099 -0.15221 0.066098 0.1213 -0.40398 0.21664 -0.04627 -0.16138 -0.078617 -0.16547 -0.51344 -0.13773 0.015997 0.2916 0.14861 -0.41306 0.59563 -0.099709 -0.20514 0.19417 -0.092003 -0.1658 0.0050829 -0.25448 0.37335 0.24221 -0.092828 -0.34651 0.30285 0.54551 -0.089982 0.20894 -0.095075 0.027148 0.0025085 0.024882 -0.23658 -0.32568 0.24942 0.46002 0.058418 0.025684 -0.07554 0.091765 0.34967 
68_dS 0.33786 0.0014319 0.29509 0.24689 -0.39437 0.099609 -0.17159 0.10843 0.18686 -0.16193 0.48463 0.016949 -0.38826 -0.017204 0.32593 -0.10349 0.09755 -0.25167 -0.17905 -0.073136 -0.4271 0.44233 0.28375 -0.065576 0.46729 -0.4731 0.38642 0.073425 -0.060761 -0.18006 -0.032224 -0.26343 0.15026 -0.16076 -0.11375 -0.020828 -0.099073 -0.29942 -0.40656 -0.16392 -0.34396 -0.22926 0.1541 0.076128 -0.40023 -0.4906 -0.1152 -0.079529 -0.74735 0.38019 -0.11286 0.47714 0.33202 -0.092693 -0.48253 -0.18285 -0.043034 -0.26752 0.0011783 -0.53777 -0.27459 0.0017607 0.042686 -0.24566 -0.14772 -0.39376 -0.23296 0.0045408 0.093584 0.50902 0.054889 0.23242 -0.23622 -0.1706 0.32571 -0.037082 0.047733 0.087472 0.033469 0.32342 0.49835 -0.31266 -0.25589 0.093002 0.53123 -0.00093097 0.44599 0.13454 0.020768 0.40063 -0.30343 -0.30837 0.082376 0.13462 0.42685 -0.11849 -0.25519 -0.016373 0.048295 0.16196 
6AviG 0.41924 -0.33202 -0.98503 0.67706 -0.73494 0.17005 -0.23934 0.53742 0.12571 -0.31954 0.23561 -0.24846 0.043005 0.19182 0.13408 -0.38156 -0.13643 -0.44476 -0.25084 -0.0024252 -0.29853 0.67379 -0.20636 -0.019715 0.17089 0.018504 0.63258 -0.38432 -0.34481 -0.64748 -0.006253 0.36305 0.2947 -0.16108 -0.0074758 0.080276 -0.60632 0.084207 -0.42764 0.1645 -0.119 0.20585 -0.37967 0.61677 -0.45636 -1.1677 0.22459 -0.20612 -1.2291 -0.14099 0.097541 -0.084521 -0.58638 -0.29804 -0.23307 -0.70492 -0.39268 -0.06735 0.033644 0.0049499 -0.24004 -0.00058197 -0.16279 -0.60719 -0.33768 -0.39428 -0.39381 0.082476 -0.05705 -0.028926 -0.97803 1.0979 0.090983 0.10606 0.22704 -0.046039 -0.2233 0.111 -0.41327 0.23483 0.82725 -0.29252 -0.10336 0.29295 0.44478 0.066797 0.024222 -0.86357 0.59754 -0.2004 0.13216 -0.19022 -0.53688 0.46705 1.3765 0.41645 0.50197 -0.40332 -0.057934 0.51929 
6A9bg 0.71482 -0.0086018 -0.46405 -0.19833 -0.88017 0.015734 -0.39354 -0.34057 -0.57713 -0.40363 -0.14427 0.15044 -0.18544 -0.074622 -0.07234 0.094858 0.045154 0.05334 -0.38227 0.46746 0.078881 0.2213 -0.035715 0.17256 -0.35151 -0.043169 -0.1389 -0.15168 -0.30495 0.0090743 0.07389 0.093496 0.063756 0.49982 -0.33682 -0.24114 0.30043 -0.073486 0.068005 -0.0019977 -0.15154 0.68627 -0.06179 0.20562 -0.73818 -0.15989 0.43067 -0.29098 -0.63563 0.057351 0.31472 -0.35625 0.24474 -0.15841 -0.19557 -0.53933 -0.48623 -0.089516 -0.063617 -0.25379 0.72356 -0.28985 -0.94141 -0.76333 -0.1684 -0.1631 -0.87773 0.16627 0.050103 0.063373 -0.45487 0.7105 0.68521 -0.24166 0.31523 -0.84736 -0.060228 -0.19234 -0.054091 0.3875 0.78413 -0.22683 0.026953 0.70306 -0.025339 0.26325 0.52137 -0.6196 0.78224 -0.40862 0.3844 -0.34344 0.14867 0.10717 0.23187 -0.24777 0.22023 0.49209 0.79487 0.03044 
62vkA 0.86305 -0.69257 -0.20455 0.3477 -0.54521 0.28335 -0.08134 0.39144 0.0039738 0.018701 0.14906 0.21658 0.27319 0.064241 -0.13331 -0.55301 -0.3815 0.032167 -0.20506 0.33925 -0.22889 0.28365 -0.03446 0.20783 -0.59936 -0.39391 0.15858 0.1354 -0.60436 0.8023 0.39208 0.10653 0.44752 -0.12143 0.41276 -0.040612 0.33192 -0.12187 -0.37306 -0.10942 0.1889 -0.038231 0.0058869 -0.15595 -0.50774 -0.59352 -0.13634 -0.38695 -0.62057 0.26665 0.12267 0.062193 0.13258 -0.46369 -0.24262 -0.55605 0.12503 -0.78705 -0.08746 -0.56991 -0.24458 -0.31443 -0.55471 -0.12723 -0.014712 0.18286 -0.75947 0.2831 -0.2129 -0.79979 0.1214 0.32011 -0.037155 -0.19671 -0.052846 0.075916 0.17794 -0.1259 -0.17012 -0.10367 0.88611 -0.12779 0.34963 -0.17416 0.15754 0.18697 0.42356 -0.35371 0.30773 -0.024917 -0.38406 -0.14904 -0.36383 0.40611 0.51009 0.51163 0.03922 -1.0154 0.41245 0.099603 
63Kaw 0.36964 -0.32118 -0.29572 0.46645 -0.8782 0.24912 -0.074739 0.40983 0.44099 -0.36151 0.4029 0.26248 -0.33746 0.46834 0.080183 -0.21195 -0.045387 -0.16892 -0.080798 0.011324 -0.38351 0.56848 -0.14208 0.10895 0.53048 -0.096841 0.60936 -0.54012 -0.12047 -0.53554 0.068254 0.011101 0.010908 -0.058125 -0.11324 0.11078 -0.79501 0.061961 -0.28277 0.18164 -0.029783 0.24307 -0.14236 0.59872 -0.40898 -1.2239 0.30771 -0.12348 -0.91747 -0.22307 0.11378 -0.11972 -0.40931 -0.53998 -0.36538 -0.40544 -0.41277 -0.095851 0.35093 -0.10706 -0.42976 -0.14056 -0.081519 -0.39516 -0.092733 -0.40472 -0.4404 -0.04509 0.38678 0.030355 -0.41529 0.81353 0.0063858 0.040211 -0.021211 0.081572 -0.16027 0.18253 -0.66598 0.19244 0.64504 -0.29249 -0.31561 0.31324 0.7528 0.037738 -0.038272 -0.52655 0.42543 -0.15189 -0.090032 -0.27754 -0.60947 0.52668 1.0975 -0.13722 0.65242 -0.17324 -0.13809 0.61251 
61O4A 0.19696 0.011426 -0.2855 -0.12919 -0.5342 -0.12963 -0.092879 -0.040258 -0.24516 -0.29233 0.26059 -0.071681 -0.092206 0.041796 -0.15192 -0.20304 -0.52413 0.34216 -0.30442 0.19648 -0.15717 0.19759 0.27283 -0.25461 -0.40012 -0.53114 -0.13683 0.17045 -0.038517 0.66709 0.022584 -0.15481 0.37368 0.2869 -0.18197 -0.19593 0.35267 0.074368 -0.26368 -0.070005 0.12713 0.04255 0.44366 0.38735 -0.82818 -0.043183 0.44664 -0.14521 -0.56958 -0.027792 0.24358 -0.015917 0.013455 0.028336 -0.053353 -0.046001 -0.15018 -0.22378 -0.37116 -0.27485 -0.058855 -0.48427 -0.68108 -0.07841 0.14901 -0.080928 -0.3379 0.097173 -0.18174 -0.39203 0.21185 0.17327 0.11846 -0.078455 -0.058813 -0.62162 -0.037586 -0.41105 0.23239 -0.072575 0.87866 0.059712 0.13034 0.4323 0.17313 0.13978 0.44338 -0.79768 0.58928 -0.32996 -0.16954 0.047155 0.16965 0.028961 -0.044358 -0.3356 -0.19231 -0.11743 0.59794 -0.038053 
5-K1I 0.51929 -0.53163 0.3963 0.97212 -0.96096 -0.3036 -0.27235 -0.46536 0.15136 -0.34152 -0.064381 0.71461 -0.38012 0.26261 -0.031975 -0.05087 0.36356 0.44223 0.63638 0.39373 0.35073 0.043183 -0.076285 0.55748 -0.10474 -0.33427 0.63712 -0.62252 -0.08736 -0.052325 -0.089566 -0.05408 -0.22982 0.098005 -0.17041 -0.18501 0.36544 -0.33549 -0.0103 0.24662 -0.026268 0.62624 0.2833 -0.29286 -0.70246 -0.56368 0.27964 -0.021544 0.0014965 0.41883 0.23799 -0.32559 0.96815 -0.2727 -0.37948 -0.49321 -0.40102 -0.49556 -0.013847 -0.60053 0.21877 -0.44517 -0.20755 -0.17884 -0.0075845 -0.28363 -0.50406 0.12236 0.25518 -0.13342 0.31814 0.18864 -0.12143 -0.19923 0.33254 -0.48642 0.26876 -0.21273 -0.66124 0.30184 0.81914 -0.52739 0.024255 0.29549 0.29009 0.19954 0.09121 -0.19771 -0.065798 0.14657 0.14539 -0.1602 -0.13562 0.48884 0.22468 -0.057283 -0.13064 -0.26076 0.038104 0.293 
5_QqY 0.30326 -0.42649 -0.73379 0.43378 -0.58192 0.35163 -0.080357 0.17292 0.18215 -0.33292 0.47872 0.15165 -0.19048 0.37024 -0.24499 -0.3903 -0.41424 0.26655 -0.12406 -0.16599 -0.29762 0.28516 -0.19598 0.1446 0.033526 -0.19772 0.46939 -0.57503 -0.017147 -0.26549 0.052261 -0.24039 0.046841 -0.050177 -0.25674 0.054701 -0.7752 -0.061525 -0.20917 0.42063 0.29612 0.35214 0.20634 0.38763 -0.57489 -1.2534 0.55323 -0.1819 -0.85208 -0.37184 0.21668 -0.28376 -0.47709 -0.66096 -0.35981 -0.10776 -0.32503 0.112 0.2122 0.18728 -0.51306 -0.18189 -0.23333 -0.085739 0.21863 -0.34538 -0.30857 -0.0027122 0.15525 -0.37518 0.12151 0.58987 -0.10482 0.05761 -0.21244 -0.088557 -0.34233 0.085481 -0.58037 0.061252 0.79933 -0.207 -0.18544 0.31108 0.75202 0.39086 -0.020485 -0.6465 0.25454 -0.57326 -0.046374 -0.3517 -0.31662 0.661 0.88702 -0.28794 0.63493 -0.42036 0.18159 0.3928 
62Uta 0.69536 -0.10624 -0.47103 -0.4942 -0.97758 -0.058558 0.068242 -0.040954 -0.52194 -0.24762 -0.22744 0.334 -0.28725 -0.1559 -0.028582 -0.048141 0.04001 0.13333 -0.26171 0.34905 -0.0064617 0.076922 -0.33761 0.23815 -0.53157 -0.084906 -0.20717 -0.01183 -0.27887 0.19875 -0.17155 0.088036 0.10078 0.71938 -0.67358 -0.26451 0.41001 0.23429 0.16049 0.36733 0.14046 0.62618 -0.039018 0.17816 -0.74973 -0.38757 0.37663 -0.32692 -0.51337 0.036331 0.33922 -0.5347 0.096132 -0.18571 -0.21408 -0.60251 -0.44166 -0.35401 -0.48743 -0.52698 0.82407 -0.60413 -0.99563 -1.0433 -0.37391 -0.037391 -1.0377 0.23064 -0.18294 -0.26844 -0.24582 0.41866 0.70353 -0.31689 0.27799 -1.0005 -0.14198 -0.1724 -0.036676 0.23847 0.81166 0.076958 0.0049028 0.50778 0.087833 0.21447 0.33597 -1.1197 0.75953 -0.54523 0.21167 -0.14151 0.03978 0.12828 -0.081142 -0.057798 0.26936 0.44487 1.1323 0.10446 
6Avi6 0.18157 -0.40042 -0.72924 0.63762 -0.63205 0.19257 -0.18313 0.070376 0.11505 -0.33383 0.35258 -0.033876 -0.23936 0.3353 -0.2559 -0.24837 -0.25114 0.30341 -0.076727 0.033694 -0.054502 0.4078 -0.082286 -0.024427 0.23688 -0.25044 0.58653 -0.52862 -0.0097803 -0.35597 -0.0091406 -0.013701 0.020094 -0.10946 -0.24901 0.0031505 -0.64085 -0.22109 -0.241 0.26637 0.14605 0.40218 0.049718 0.50119 -0.6006 -0.9746 0.54539 -0.17578 -0.81653 -0.19657 0.17933 -0.17612 -0.31846 -0.4592 -0.19658 -0.058814 -0.27082 -0.0482 0.078097 0.14913 -0.43056 -0.056415 -0.22486 -0.13508 0.07077 -0.31626 -0.056218 -0.14868 0.13385 -0.30249 -0.27916 0.65032 -0.019915 0.24252 0.098972 -0.19957 -0.20137 -0.14229 -0.53638 0.08223 0.84132 -0.38281 -0.25538 0.51579 0.57546 0.34631 -0.0083673 -0.59385 0.28818 -0.358 0.01103 -0.18341 -0.26429 0.60993 1.0405 -0.30017 0.4295 -0.37938 -0.087166 0.38641 
63Jsg 0.35488 -0.28339 -0.96189 0.63711 -0.68146 0.15214 -0.20785 0.46669 0.097591 -0.37977 0.34288 -0.225 -0.035697 0.22872 0.13638 -0.29094 -0.19703 -0.42204 -0.27292 -0.097433 -0.38681 0.60446 -0.14798 -0.0481 0.13363 -0.0076758 0.67316 -0.33532 -0.17503 -0.65306 -0.042418 0.27647 0.2888 -0.073104 -0.13167 0.14299 -0.6292 0.11571 -0.40438 0.20295 -0.042052 0.19481 -0.29244 0.65078 -0.51682 -1.2379 0.31015 -0.13602 -1.2277 -0.2121 0.084538 -0.11097 -0.62313 -0.25912 -0.24947 -0.70831 -0.36493 -0.0024053 -0.034721 0.032011 -0.2106 -0.056123 -0.19785 -0.60359 -0.35418 -0.4265 -0.34099 0.034715 -0.074448 -0.033652 -0.84306 1.0884 0.065957 0.091387 0.1978 -0.11991 -0.37193 0.098148 -0.43278 0.24789 0.84057 -0.23821 -0.1395 0.32559 0.55029 0.097129 0.050422 -0.98974 0.58302 -0.27957 0.087012 -0.20436 -0.54074 0.52366 1.3331 0.21975 0.46963 -0.33002 0.048097 0.50087 
5-gkk 0.58254 0.059405 -0.48464 -0.38609 -0.87278 -0.050702 -0.23362 -0.19023 -0.57642 -0.45549 0.0058362 0.041293 -0.24421 0.090912 -0.18491 -0.1096 -0.31705 0.23207 -0.39443 0.2899 -0.11478 0.15529 0.10831 -0.080818 -0.55225 -0.32537 -0.14536 -0.060177 -0.082405 0.54174 -0.0078365 -0.10024 0.27433 0.68502 -0.47778 -0.22408 0.29811 0.16485 -0.024597 0.14731 0.035418 0.45322 0.35657 0.40663 -0.89015 -0.25717 0.54186 -0.14869 -0.7361 -0.18904 0.30547 -0.28315 -0.019368 -0.1447 -0.15771 -0.35245 -0.3704 -0.082967 -0.29118 -0.34433 0.56986 -0.71314 -1.0517 -0.53177 0.0028866 -0.24242 -0.75735 0.1665 -0.075162 -0.29534 -0.036184 0.36138 0.45893 -0.21973 0.04818 -0.92221 -0.12291 -0.42949 0.11398 0.22532 1.0745 0.075373 0.12894 0.64886 0.1576 0.31272 0.60069 -0.92807 0.85739 -0.58603 -0.013611 -0.2426 0.16412 0.18071 0.027584 -0.42752 0.02118 0.19 1.1062 -0.046941 
67sO6 0.53829 -0.52748 -0.5337 0.14077 -0.71299 -0.084027 -0.063 0.47402 -0.19779 0.38662 -0.34318 -0.82972 -0.12137 -0.42148 -0.21129 -1.0212 0.29156 -0.17207 0.24357 -0.12893 -0.11991 0.4362 -0.53821 -0.17528 -0.10664 -0.35154 0.54937 -0.43597 -0.38695 -0.019835 -1.0311 -0.0066742 0.2409 0.10929 -0.36078 -0.1721 -0.11398 0.012013 -0.50777 1.1006 -0.59468 -0.00092014 0.16962 -0.05133 -0.23677 -0.72944 -0.10591 -0.23406 -0.8997 0.16963 -0.065772 0.24966 -0.17507 -0.4618 -0.0090426 0.09094 -0.054881 -0.095231 -1.045 -0.72534 0.35195 -0.073081 -0.16329 -1.0408 -0.057061 -0.1749 -0.25843 0.28253 -0.31619 0.068897 -0.28735 -0.042344 0.078315 0.12147 0.5827 -0.59069 0.32926 -0.10498 0.074897 0.46978 0.75507 -0.21151 0.046393 0.086064 -0.32769 0.26589 -0.053706 -0.23613 -0.2374 0.033158 -0.0072123 -0.12973 0.23933 0.3914 0.54968 0.72892 -0.3311 -0.58641 0.61775 0.41076 
61LeE 0.45842 0.074446 0.075081 0.033659 -0.35042 -0.073911 -0.26146 -0.35785 -0.010824 -0.21558 0.10344 -0.12148 0.087971 -0.13657 -0.032045 -0.060942 0.016176 -0.18147 -0.12866 0.51185 -0.13775 0.16565 0.12911 -0.10759 -0.049837 -0.00065314 -0.12293 -0.27783 -0.40614 0.07905 0.12421 -0.10181 -0.048062 -0.047855 0.0043752 -0.13023 0.029535 -0.14309 -0.20942 -0.14061 -0.45825 0.20011 -0.061644 -0.01714 -0.51943 0.16282 0.15685 -0.097355 -0.34933 -0.21853 0.11908 -0.30585 0.25617 -0.59144 -0.3628 -0.23775 -0.40002 0.15282 0.26825 -0.11612 0.34286 -0.081882 -0.52004 -0.10823 0.34426 -0.20892 -0.56086 0.1536 0.11073 0.1536 -0.050006 0.56115 0.17042 -0.052555 -0.37421 -0.37948 0.18717 0.06431 0.10245 0.22867 0.27353 -0.25218 0.14337 0.25146 -0.39314 0.052835 0.3499 0.083585 0.43122 -0.2968 -0.039808 -0.47967 -0.0098017 -0.030398 0.17367 0.14494 -0.10429 -0.025647 0.33432 0.042928 
60COQ 0.37313 -0.39264 -0.60965 0.15961 -0.55556 0.12346 -0.1204 0.14272 -0.27066 0.47083 0.0085571 -0.71289 -0.10075 -0.25178 -0.31131 -0.7277 0.05949 0.15151 0.072489 -0.26247 0.18308 0.46316 -0.31171 0.041171 -0.16362 -0.315 0.50746 -0.49028 -0.13719 -0.032842 -1.0041 -0.13974 0.10663 -0.14214 -0.78354 -0.41587 -0.55871 -0.21622 -0.55817 1.0943 -0.24482 0.097304 0.45651 0.15018 -0.48307 -0.75468 0.24089 -0.04453 -0.94518 -0.055862 0.12901 0.011654 -0.26968 -0.43399 -0.41309 0.36383 -0.1754 -0.10543 -0.69959 -0.1579 -0.018954 -0.21794 -0.21367 -0.58004 0.078499 -0.08121 0.022635 0.31918 -0.21561 0.074974 0.038424 -0.10252 0.0078884 -0.03653 0.36896 -0.74299 0.19906 0.042693 -0.059592 0.22559 0.871 -0.29402 -0.18083 0.17024 -0.044999 0.48224 0.21953 -0.11163 -0.44086 -0.5281 -0.074268 -0.44697 0.4483 0.48635 0.76814 -0.026737 -0.060646 -0.32155 0.24186 0.26235 
6Cueo 0.48926 -0.31968 -0.081214 0.16698 -0.80923 0.18979 0.14848 0.51563 0.21855 -0.10847 0.14117 0.3148 -0.20469 -0.25118 0.25132 -0.2644 0.15103 -0.0019799 0.032708 0.13104 -0.090656 0.16155 -0.38187 0.30224 0.24317 -0.08788 0.2187 0.050588 -0.52572 -0.032648 0.0088174 0.20657 0.059385 -0.13063 0.075173 -0.20275 0.17711 0.13561 0.13421 -0.15536 -0.1515 0.21434 -0.20636 -0.096521 -0.26737 -0.65881 -0.10555 -0.38415 -0.18485 0.62658 -0.03865 -0.046232 0.2128 -0.17222 -0.12566 -0.53528 -0.13598 -0.71267 -0.3529 -0.71889 0.067529 0.069072 -0.16152 -0.54287 -0.31229 -0.15945 -0.54817 0.13298 -0.077347 -0.023286 -0.40657 0.43758 0.15718 -0.45702 0.44668 0.019948 0.27736 0.14238 -0.26703 0.17452 0.59671 -0.15396 -0.14316 0.018584 0.32716 -0.20669 0.092692 -0.24792 0.18515 0.46762 -0.0322 0.13525 -0.41703 0.19004 0.26164 0.60439 0.061688 -0.25571 0.13862 0.40924 
6EmmI 0.38954 -0.38636 -0.90617 0.88952 -0.48646 0.17564 -0.36078 0.30842 -0.039359 -0.29494 0.34767 -0.32636 0.1867 0.14311 0.098756 -0.32805 -0.21745 -0.44023 -0.29365 -0.08515 -0.19184 0.61692 0.06081 0.008734 -0.15389 -0.050253 0.69264 -0.29465 -0.27422 -0.53611 -0.063127 0.21861 0.35439 -0.21297 -0.031639 0.061527 -0.4925 -0.13623 -0.51242 0.16233 0.011974 0.13081 -0.17814 0.41554 -0.52735 -1.0711 0.20883 -0.14858 -1.2564 -0.090628 0.12734 -0.055791 -0.45982 -0.16397 -0.32145 -0.72016 -0.34127 -0.048606 0.04735 0.19197 -0.30975 -0.035271 -0.11446 -0.44923 -0.29615 -0.35821 -0.1866 0.11917 -0.18635 -0.050855 -0.63714 1.008 -0.085866 0.16624 0.18391 -0.067374 -0.28477 0.063129 -0.31707 0.21507 0.8607 -0.33652 0.0055572 0.21565 0.44734 0.21212 0.12751 -0.81718 0.37496 -0.32464 0.14001 -0.30218 -0.31532 0.4419 1.412 0.2735 0.39729 -0.44029 -0.06094 0.40503 
6DfTy 0.61669 -0.84824 0.22589 1.0777 -1.0704 -0.082996 -0.29872 -0.17101 0.12277 -0.1734 -0.032976 0.49583 -0.42531 0.036613 -0.028701 -0.18199 0.36382 0.38412 0.60267 0.080706 0.4668 0.13595 -0.27698 0.61462 -0.098784 -0.416 0.91261 -0.58525 -0.033451 -0.10546 -0.4871 -0.034094 -0.17572 0.00046505 -0.11843 -0.26937 0.32842 -0.36937 -0.066921 0.4358 -0.10579 0.63273 0.28529 -0.3966 -0.52762 -0.93381 0.19259 -0.090758 -0.020168 0.86541 0.16202 -0.033999 0.84951 -0.014478 -0.24795 -0.41655 -0.09977 -0.62834 -0.51929 -0.75497 0.14661 -0.03812 -0.097429 -0.43779 -0.20703 -0.29528 -0.30946 0.16974 0.16856 -0.061721 0.15162 0.21676 -0.02917 -0.21494 0.82924 -0.38254 0.28162 -0.16645 -0.81742 0.44516 0.99323 -0.6458 -0.12146 0.2645 0.37334 0.22634 0.01861 -0.11479 -0.42377 0.41959 0.20031 -0.072594 -0.14312 0.63456 0.51913 0.022635 -0.13574 -0.39957 0.019058 0.45025 
6FZYS 0.57624 -0.47653 -0.35319 0.13514 -0.80558 -0.072355 -0.044075 0.58106 -0.047117 0.43392 -0.41585 -0.63676 -0.097142 -0.45748 0.00076326 -1.0862 0.45684 -0.21639 0.3158 -0.1038 -0.19483 0.48335 -0.57274 -0.1328 -0.0079756 -0.29269 0.55773 -0.46537 -0.53176 -0.14673 -0.90459 0.020111 0.20781 0.052875 -0.28751 -0.20593 -0.053176 0.049207 -0.42671 1.0431 -0.64808 0.0084221 0.051052 -0.16654 -0.17862 -0.78845 -0.24759 -0.24988 -0.90405 0.3185 -0.041132 0.1565 -0.017992 -0.56028 -0.040196 -0.027705 -0.13175 -0.24911 -0.97319 -0.82784 0.31411 -0.049168 -0.072709 -1.1663 -0.12471 -0.14828 -0.46205 0.35853 -0.303 0.2012 -0.31404 -0.038412 0.081645 -0.023923 0.56544 -0.46783 0.47516 0.0094793 0.036586 0.4669 0.69393 -0.24342 0.023457 -0.044115 -0.31827 0.19715 -0.067717 -0.11762 -0.21973 0.28673 -0.020465 -0.054495 0.17798 0.35847 0.43711 0.91101 -0.2447 -0.50734 0.5704 0.41513 
5_TGy 0.33937 -0.34364 -0.91119 0.8898 -0.42563 0.24396 -0.36328 0.25283 0.031242 -0.39137 0.42759 -0.34324 0.15753 0.22392 0.058115 -0.37505 -0.35198 -0.36668 -0.29069 -0.16709 -0.21775 0.59241 0.046415 -0.023755 -0.10868 -0.077855 0.73233 -0.37492 -0.18021 -0.51033 -0.047634 0.081807 0.32567 -0.25474 -0.03126 0.091943 -0.57813 -0.15053 -0.54103 0.23098 0.024775 0.12584 -0.10404 0.4367 -0.56194 -1.1414 0.26143 -0.12701 -1.2618 -0.18755 0.13859 -0.099778 -0.49376 -0.25632 -0.39428 -0.67374 -0.34161 0.075786 0.092 0.2132 -0.36314 -0.084331 -0.10595 -0.28041 -0.1714 -0.47851 -0.16907 0.12231 -0.12358 -0.11908 -0.47675 0.97689 -0.16222 0.21311 0.022511 -0.023551 -0.32736 0.05259 -0.37708 0.20184 0.89751 -0.32671 0.011757 0.16062 0.58172 0.26983 0.091607 -0.74208 0.31407 -0.41857 0.070819 -0.36395 -0.34601 0.5236 1.4014 0.20236 0.40639 -0.516 -0.00095204 0.38339 
fskF2 0.32773 -0.55942 0.037882 1.0211 -0.6678 -0.40965 -0.14935 -0.36457 0.033336 0.023591 -0.2171 0.35357 -0.0092376 0.14301 -0.40793 -0.35813 0.2778 0.61558 0.61719 0.47329 0.38788 0.064454 -0.081985 0.40846 -0.43703 -0.35999 0.55615 -0.81611 -0.32866 0.17683 -0.19202 -0.07857 -0.18622 0.043462 -0.31684 -0.15685 0.11927 -0.37405 -0.090351 0.44636 0.15721 0.56757 0.44546 -0.26068 -0.7144 -0.49213 0.37304 -0.18172 -0.28662 0.094153 0.26597 -0.50949 0.62477 -0.59499 -0.36415 -0.10247 -0.57385 -0.42376 0.07198 -0.25435 -0.098492 -0.49053 -0.16161 -0.14622 0.28452 -0.038158 -0.32223 -0.024754 -0.028159 -0.29676 0.5361 -0.12506 -0.21187 0.055201 -0.055171 -0.59982 0.28058 -0.22489 -0.43688 0.0013829 0.78669 -0.48728 0.22074 0.29356 -0.044153 0.40357 -0.11229 -0.24758 -0.06937 -0.17397 0.17602 -0.09707 0.10541 0.43783 0.3151 0.11658 0.046092 -0.48625 0.057829 0.30882 
5-Hb2 0.281 -0.48164 -0.0052762 1.0117 -0.81065 -0.4636 -0.15204 -0.3412 0.16613 -0.056768 -0.24147 0.42399 -0.13901 0.21787 -0.28569 -0.3441 0.31446 0.61306 0.73255 0.49691 0.36796 0.083272 -0.20936 0.409 -0.249 -0.3559 0.52989 -0.88767 -0.25707 0.061052 -0.17866 0.026004 -0.22904 0.044702 -0.37172 -0.15182 0.073723 -0.24582 -0.075641 0.56313 0.095692 0.61901 0.35279 -0.13413 -0.68254 -0.5212 0.42124 -0.1374 -0.21806 0.073053 0.27929 -0.54745 0.60207 -0.60459 -0.32981 -0.1447 -0.64281 -0.39032 0.023677 -0.3071 -0.040773 -0.57543 -0.14755 -0.1618 0.24149 -0.12919 -0.39591 0.0012891 0.032864 -0.29126 0.36456 -0.10488 -0.19846 -0.01718 -0.017177 -0.62244 0.31798 -0.22711 -0.47609 0.027974 0.81203 -0.42911 0.13504 0.3121 0.048285 0.31914 -0.13355 -0.34019 -0.005132 -0.12532 0.14451 -0.0095874 0.029103 0.46236 0.19907 0.1433 -0.0051101 -0.4534 -0.014061 0.33931 
61SDy 0.33269 -0.17673 -0.16598 -0.092168 -0.64158 0.12161 0.14534 0.484 0.0040172 0.0039204 0.099249 -0.075938 -0.18877 -0.39402 0.12126 -0.30692 0.073617 -0.099589 -0.10678 -0.023128 -0.13228 0.17955 -0.32796 0.10965 0.21479 -0.097306 0.19264 0.17278 -0.45596 0.019639 -0.16991 0.15326 0.17523 -0.043429 0.007406 -0.19542 0.22206 0.15938 0.14436 -0.17819 -0.28326 0.066106 -0.10047 0.028108 -0.26389 -0.46794 -0.13479 -0.31187 -0.19258 0.57945 -0.066202 0.11101 0.0073782 -0.069322 -0.021836 -0.38588 -0.052742 -0.43458 -0.57342 -0.60987 0.11614 0.25676 -0.20673 -0.64019 -0.27189 -0.14939 -0.35621 0.067763 -0.16444 0.081741 -0.40885 0.37501 0.22607 -0.36289 0.43505 -0.094466 0.20697 0.072047 0.022401 0.18652 0.55413 -0.072025 -0.029113 0.0095262 0.10461 -0.18183 0.12944 -0.20293 0.20206 0.34883 -0.01787 0.15864 -0.24218 0.12735 0.18671 0.57855 -0.075198 -0.15511 0.32347 0.37052 
62D36 0.66856 -0.71656 0.43922 0.81546 -1.1753 -0.16121 -0.15622 -0.082288 0.23053 -0.21075 -0.13336 0.74665 -0.40267 0.082847 0.09127 -0.19658 0.47426 0.3369 0.68765 0.23558 0.29597 -0.011503 -0.30735 0.65352 -0.085336 -0.27476 0.75986 -0.49986 -0.23404 0.0085608 -0.2432 -0.0053798 -0.19319 0.1092 -0.050043 -0.22965 0.53797 -0.19363 0.13662 0.21226 -0.10101 0.59022 0.18962 -0.47372 -0.56472 -0.81804 0.06985 -0.15961 0.11176 0.79958 0.20877 -0.24163 0.98913 -0.1885 -0.25101 -0.68876 -0.17391 -0.78856 -0.35734 -0.92655 0.30746 -0.22539 -0.15537 -0.55872 -0.20876 -0.25737 -0.65826 0.18342 0.16519 -0.12124 0.25596 0.18482 -0.0077037 -0.38781 0.56867 -0.30301 0.39183 -0.12616 -0.78543 0.35801 0.92046 -0.51769 0.061939 0.11928 0.30342 0.077767 0.038807 -0.19381 -0.15278 0.51741 0.086658 -0.023139 -0.31965 0.54925 0.1832 0.23042 -0.10624 -0.31675 0.18454 0.39507 
6736Y 0.42281 -0.55698 -0.27414 0.38023 -0.86137 0.38115 -0.14481 0.25263 0.33025 -0.32161 0.4457 0.35725 -0.41871 0.49612 -0.29414 -0.22619 -0.22547 0.21387 -0.067195 0.020333 -0.29053 0.3587 -0.094301 0.18573 0.34344 -0.24317 0.47654 -0.55674 -0.083141 -0.20226 0.1132 -0.20701 -0.023006 0.031362 -0.13164 0.094132 -0.76386 -0.11425 -0.17877 0.24035 0.14903 0.3569 0.12723 0.38443 -0.42092 -1.1767 0.47216 -0.22342 -0.73046 -0.22878 0.1239 -0.099152 -0.31816 -0.72114 -0.34614 -0.094259 -0.32009 -0.055396 0.39494 -0.038917 -0.53255 -0.10302 -0.12907 -0.15871 0.11588 -0.3077 -0.3546 -0.09835 0.44026 -0.25697 0.046918 0.57689 -0.068781 0.08349 -0.080178 0.066887 -0.11167 0.056491 -0.62998 0.1243 0.75149 -0.26729 -0.2718 0.36323 0.79857 0.24006 0.044074 -0.37827 0.27115 -0.36051 -0.15612 -0.37717 -0.40072 0.65744 0.91004 -0.40275 0.65713 -0.32659 0.032176 0.52885 
63fqI 0.44107 -0.35191 1.215 0.29117 -0.81774 -0.19318 -0.59874 -0.20333 0.22528 -0.48997 -0.0026102 0.09681 -0.55262 0.2133 0.18251 -0.52275 0.15612 -0.35572 0.49797 0.32008 -0.64376 0.23507 0.43969 -0.25125 0.15862 -0.42702 0.94749 -0.67941 -0.25287 0.23379 -0.31407 -0.52073 -0.076439 0.51255 -0.15075 0.25729 0.43048 -0.084859 -0.042776 0.59925 -0.55839 0.32092 0.1406 -0.099137 -0.78523 -0.36532 0.097641 0.23406 -0.35427 -0.22067 0.29791 -0.42648 0.51851 -1.076 -0.36542 -0.67813 -0.43109 -0.10904 -0.21456 -0.77865 0.391 -0.62852 -0.51379 -0.54678 0.51581 -0.68536 -1.1186 -0.011506 0.31552 0.12756 0.74754 0.14833 0.1026 0.33646 -0.57069 -0.1712 0.4528 -0.24818 -0.29412 0.45209 1.0195 -0.44778 0.43056 -0.056593 -0.0071684 0.22775 0.051574 -0.03926 0.64142 0.36746 -0.54563 -0.33364 -0.35721 0.373 -0.017395 -0.17177 -0.32024 -0.12788 0.87047 0.10139 
63i_a 0.4369 -0.2528 0.94025 0.30255 -0.88979 -0.1088 -0.28813 0.46059 0.60123 -0.28017 0.079015 -0.030172 -0.45285 0.1244 0.55926 -0.74891 0.14394 -0.70203 0.45479 0.13455 -1.0328 0.46973 0.031045 -0.23716 0.42311 -0.3199 1.0534 -0.48092 -0.3021 0.12119 -0.14836 -0.25666 0.07763 0.24615 0.052534 0.3875 0.23056 0.17352 -0.0312 0.52391 -0.67898 -0.023861 -0.19442 0.025515 -0.46884 -0.75383 -0.23799 0.086943 -0.48018 0.048262 0.13638 -0.24829 0.16987 -1.1145 -0.18748 -0.88079 -0.15311 -0.39369 -0.44832 -0.94281 0.10008 -0.38754 -0.2289 -0.71124 0.18571 -0.70064 -1.1064 0.081369 0.10091 0.20162 0.29209 0.28074 0.092092 0.068384 -0.35237 0.25774 0.44395 0.041776 -0.38035 0.34965 0.93774 -0.25265 0.29163 -0.34671 0.20864 -0.072651 -0.05712 -0.13315 0.70983 0.80421 -0.7752 -0.028253 -0.76327 0.35617 0.0971 0.36764 -0.32074 -0.46722 0.66102 0.31758 
6EmHM 0.46623 -0.45383 -0.48381 0.51004 -0.91935 0.26041 -0.13409 0.58344 0.38865 -0.2773 0.34556 0.11571 -0.20929 0.37058 0.035699 -0.38808 -0.061365 -0.32172 -0.1051 0.00059432 -0.47818 0.61815 -0.18332 0.084891 0.40163 -0.055013 0.62939 -0.56714 -0.30354 -0.56711 0.0066178 0.081172 0.13292 -0.047762 -0.027307 0.13879 -0.83026 0.13311 -0.33568 0.23911 -0.080508 0.21698 -0.17877 0.55972 -0.38586 -1.3333 0.27963 -0.16593 -1.0677 -0.2523 0.099192 -0.086445 -0.55534 -0.62756 -0.3169 -0.47667 -0.43599 -0.036797 0.3035 -0.07489 -0.46493 -0.046302 -0.065939 -0.53487 -0.10525 -0.37383 -0.52386 0.010204 0.2847 0.018406 -0.52558 0.92451 0.018034 0.073971 -0.0042595 0.11728 -0.13673 0.22993 -0.5774 0.23323 0.71001 -0.28972 -0.21271 0.28663 0.60415 0.049776 -0.055603 -0.62892 0.5264 -0.17163 -0.036227 -0.30792 -0.61833 0.53024 1.2321 0.12582 0.70454 -0.318 -0.065498 0.65142 
6A6RK 0.6509 0.024149 -0.77825 -0.21059 -1.0597 -0.073378 -0.21901 -0.27938 -0.47102 -0.5544 -0.14205 0.15684 -0.3009 -0.026117 0.026815 0.0071311 -0.083833 0.17637 -0.27519 0.46944 0.11821 0.24822 -0.33091 0.091054 -0.37645 -0.13068 -0.24203 -0.31142 -0.10135 -0.074148 -0.16213 0.12863 -0.0056601 0.57741 -0.63037 -0.29206 0.21855 0.12852 -0.11143 0.48699 -0.072839 0.83319 -0.16253 0.3807 -0.87832 -0.32918 0.65667 -0.29108 -0.71773 -0.125 0.41179 -0.63246 0.11267 -0.18496 -0.24132 -0.47903 -0.59969 -0.089064 -0.39886 -0.29693 0.90453 -0.61055 -1.1054 -0.82772 -0.23185 -0.27631 -1.0026 0.30856 -0.078676 -0.19515 -0.58193 0.77889 0.7655 -0.16672 0.30756 -1.1679 -0.20646 -0.25088 -0.20219 0.36276 0.8841 -0.13442 -0.17858 0.84317 0.1344 0.27412 0.31927 -1.163 0.86325 -0.68035 0.39133 -0.21818 0.059159 0.14846 0.17489 -0.26656 0.23447 0.46249 0.88869 0.096505 
65GMo 0.31508 -0.1371 -0.069803 -0.0083252 -0.6092 0.047668 0.10351 0.35678 0.15266 -0.0381 -0.025875 0.04739 -0.22304 -0.25736 0.14527 -0.2266 0.21241 -0.13213 0.071932 0.01678 -0.16916 0.14917 -0.37938 0.10268 0.23904 0.002936 0.15539 -0.076215 -0.27926 -0.19803 -0.22203 0.071321 0.015776 0.037065 -0.0085594 -0.068433 0.055274 0.15971 0.058461 0.070598 -0.35732 0.10132 -0.15644 -0.044454 -0.08024 -0.47233 -0.090285 -0.23793 -0.19148 0.38847 -0.10346 0.044089 0.072908 -0.18199 -0.015213 -0.30647 -0.10621 -0.22521 -0.38356 -0.57248 0.20519 0.17042 -0.053116 -0.59814 -0.2245 -0.20037 -0.40326 0.11493 -0.025005 0.18463 -0.37709 0.32435 0.1233 -0.25824 0.36159 -0.099436 0.1618 0.11944 -0.111 0.26562 0.29752 -0.075791 -0.088995 0.050898 0.080958 -0.1582 -0.032726 -0.1522 0.10402 0.33634 0.046258 0.091 -0.21626 0.10967 0.12312 0.49551 -0.0048005 -0.077195 0.28528 0.36441 
61oww 0.48162 -0.15709 0.28577 0.12106 -0.81566 0.15141 0.016357 0.68913 0.12199 -0.026668 0.85584 0.13253 -0.34879 -0.2113 0.73755 -0.52028 -0.17932 -0.32591 -0.40903 -0.35751 -0.97609 0.73375 0.35442 0.022898 0.061482 -0.74162 0.53021 0.50285 -0.090087 -0.019132 -0.20953 -0.51134 0.46692 0.0149 -0.23705 -0.012439 0.18333 -0.026345 -0.50337 0.082974 0.035415 -0.47324 0.37491 0.15281 -0.81183 -0.9423 0.036646 -0.28246 -1.2795 0.6962 0.15608 0.49017 0.29137 0.13018 -0.34084 -0.39789 0.089943 -0.86276 -0.58327 -0.79489 -0.67529 -0.19613 -0.088686 -0.67571 -0.40074 -0.1041 -0.61105 0.29607 -0.26058 0.51899 0.4732 0.28979 0.05465 -0.49491 0.59301 -0.27108 -0.18821 0.25851 -0.10873 0.23605 0.88802 -0.24676 -0.33103 0.19304 0.88426 -0.076001 0.54999 -0.76181 0.36235 0.58448 -0.2921 -0.10831 0.073804 -0.01241 0.39766 -0.42489 -0.13671 0.24135 0.36009 0.15607 
63Ezi 0.2287 -0.45103 -0.4992 0.50122 -0.7036 0.23721 -0.1454 0.11608 0.21866 -0.28662 0.37011 0.08783 -0.38977 0.41115 -0.29526 -0.23903 -0.16667 0.25412 0.0013114 0.013934 -0.16091 0.3729 -0.093263 0.031651 0.35333 -0.22733 0.62905 -0.61722 -0.025926 -0.34901 -0.026075 -0.095481 -0.058368 -0.017892 -0.29882 0.049624 -0.75114 -0.17116 -0.16656 0.30778 0.10483 0.41249 0.10366 0.48962 -0.54461 -1.094 0.52174 -0.11677 -0.72671 -0.27028 0.15699 -0.16591 -0.36463 -0.63246 -0.25084 -0.01564 -0.2959 0.0032863 0.18327 0.080684 -0.44198 -0.057357 -0.20678 -0.1963 0.1454 -0.34596 -0.1617 -0.20141 0.2869 -0.23063 -0.13606 0.58515 -0.020703 0.21565 0.0069551 -0.11613 -0.16055 -0.068637 -0.5951 0.11235 0.80175 -0.381 -0.26548 0.45453 0.60198 0.32431 -0.021568 -0.4628 0.27295 -0.35414 -0.10023 -0.27116 -0.34077 0.67498 1.0059 -0.38339 0.51365 -0.33645 -0.036993 0.46748 
61NLI -0.023892 -0.11898 -0.18103 0.24753 -0.20046 0.08264 0.04855 -0.047872 -0.10299 -0.28594 0.37597 -0.1072 -0.080313 0.0014508 -0.308 -0.12906 -0.41137 0.30883 -0.2335 -0.10449 0.086838 0.024295 0.14057 -0.10415 -0.11873 -0.32893 0.27129 0.095759 0.015678 0.35519 -0.0021604 -0.2109 0.23622 -0.0054731 -0.06669 -0.099969 0.062591 -0.11222 0.042506 -0.23933 0.13018 0.041554 0.42077 0.19663 -0.49259 -0.38481 0.19852 -0.12988 -0.18902 0.16443 -0.0055256 0.022707 -0.037073 -0.031319 -0.11674 -0.069898 -0.042389 -0.089935 -0.28206 -0.11536 -0.19119 -0.027015 -0.2683 0.097874 0.12686 -0.25332 0.23317 -0.10835 -0.088286 -0.34858 0.22491 0.21405 -0.17309 0.066764 -0.032096 -0.17599 -0.053231 -0.33074 0.018692 -0.038757 0.66983 -0.017933 0.10355 0.13417 0.38704 0.17768 0.11523 -0.29845 0.0021306 -0.25105 -0.13137 0.054635 -0.050191 0.31552 0.30939 -0.11251 -0.11239 -0.45137 0.32415 0.23898 
5_pzw 0.42348 -0.41394 0.74555 0.30281 -0.3644 -0.0040504 -0.58373 -0.16795 0.02618 -0.49635 0.13623 -0.2566 -0.21276 0.070832 -0.014735 -0.68802 -0.21773 -0.35202 0.19825 0.15089 -0.52589 0.09682 0.47152 -0.34163 -0.15253 -0.4742 0.71126 -0.47851 -0.26087 0.36229 -0.36456 -0.60966 0.11127 0.24387 -0.047122 0.20456 0.26211 -0.09923 -0.34707 0.61357 -0.41124 0.10303 0.29689 -0.18885 -0.70776 -0.31851 0.059598 0.11522 -0.56463 -0.39623 0.17806 -0.25813 0.31552 -0.87182 -0.46407 -0.46475 -0.32385 0.10689 -0.19548 -0.54554 0.28892 -0.62365 -0.44591 -0.15582 0.61905 -0.60846 -0.74871 0.12673 0.093735 -0.12071 0.82229 0.092863 -0.19009 0.48533 -0.68821 -0.11848 0.29044 -0.25278 -0.036537 0.37587 0.88817 -0.31371 0.47421 -0.16952 0.014181 0.38354 0.077049 -0.025465 0.34576 -0.027591 -0.47702 -0.54975 -0.11856 0.3825 0.15083 0.058204 -0.34594 -0.46017 0.86535 -0.00807 
6BI6S 0.41437 -0.094165 0.83226 0.22282 -0.70229 -0.21511 -0.54722 -0.21637 0.30993 -0.61312 0.099638 0.0057594 -0.49676 0.38273 0.21431 -0.30733 -0.0072543 -0.52333 0.25294 0.30773 -0.80635 0.36781 0.36156 -0.38237 0.2625 -0.32001 0.83497 -0.64106 -0.011989 0.047917 -0.10543 -0.48635 -0.049091 0.48497 -0.13017 0.38512 0.078857 -0.031561 -0.21436 0.49815 -0.57304 0.20058 0.0057746 0.17791 -0.71452 -0.45505 0.19467 0.2265 -0.61498 -0.45388 0.26501 -0.40155 0.22114 -1.0581 -0.40547 -0.71114 -0.42652 0.20157 0.052696 -0.55912 0.3354 -0.5714 -0.4377 -0.44103 0.39962 -0.7873 -1.014 -0.02501 0.4048 0.20776 0.47617 0.40048 0.13267 0.36243 -0.60924 -0.16171 0.14998 -0.12645 -0.32281 0.47332 0.82974 -0.35111 0.28772 0.050801 0.18085 0.15303 0.10538 -0.20379 0.76515 0.087266 -0.51032 -0.48414 -0.44028 0.40434 0.17078 -0.25501 -0.21588 -0.059716 0.80217 0.12561 
63dOW 0.22158 -0.53477 0.69711 0.11976 -0.58858 -0.051554 -0.61765 -0.24796 -0.026375 -0.63064 0.082665 -0.051104 -0.59523 0.29108 -0.36897 -0.33518 -0.1211 -0.00086826 0.31176 0.25761 -0.45446 -0.0017544 0.5648 -0.42817 0.030179 -0.38221 0.81799 -0.67797 -0.14407 0.11672 -0.51829 -0.58078 -0.096125 0.60347 -0.30048 0.27895 0.0092954 -0.010505 -0.21588 0.69469 -0.24181 0.48144 0.31968 0.092923 -0.80514 -0.40918 0.55696 0.14228 -0.52857 -0.69259 0.23201 -0.40801 0.11406 -0.85648 -0.35125 -0.29872 -0.61596 0.27164 -0.016045 -0.34675 0.34136 -0.57874 -0.44495 -0.32515 0.57066 -0.53483 -0.69851 -0.21577 0.41073 -0.12027 0.67236 0.14623 0.049279 0.725 -0.64609 -0.35969 0.17467 -0.33243 -0.2099 0.36379 0.95998 -0.41011 0.38215 0.20835 0.10034 0.38731 -0.054986 -0.29465 0.52458 -0.36333 -0.27462 -0.56033 -0.1472 0.60901 0.27028 -0.48486 0.024973 0.029124 0.83431 0.066443 
62D2y 0.64385 -0.86871 0.33756 1.0176 -1.0826 -0.095525 -0.22915 -0.083949 0.19824 -0.15427 -0.068591 0.58892 -0.38943 0.090323 -0.012998 -0.25608 0.37065 0.36788 0.64997 0.12528 0.39162 0.07693 -0.27885 0.631 -0.09904 -0.39181 0.91095 -0.52623 -0.14559 0.012103 -0.36774 -0.0031889 -0.14966 -0.015501 -0.044539 -0.23177 0.43856 -0.30904 -0.023535 0.31225 -0.076987 0.55572 0.26233 -0.43746 -0.55096 -0.92202 0.08803 -0.11993 0.028393 0.85429 0.17677 -0.078242 0.91367 -0.10336 -0.27749 -0.55326 -0.075154 -0.76296 -0.4598 -0.87046 0.12556 -0.13612 -0.08977 -0.46246 -0.20407 -0.24869 -0.42724 0.16863 0.15207 -0.17692 0.24592 0.17215 -0.081743 -0.26531 0.69659 -0.27261 0.34436 -0.16158 -0.81457 0.35984 1.007 -0.60118 0.010288 0.1127 0.36691 0.18012 0.017787 -0.12281 -0.35033 0.47576 0.073437 -0.053071 -0.26113 0.65443 0.43961 0.16791 -0.14126 -0.49485 0.053869 0.4238 
63e74 0.29724 -0.29445 0.73587 0.22169 -0.59712 -0.19716 -0.58809 -0.2471 0.12591 -0.58859 0.055458 -0.10503 -0.49091 0.3591 -0.064098 -0.34896 -0.11199 -0.28849 0.28644 0.30029 -0.61882 0.22086 0.45719 -0.43195 0.07475 -0.38682 0.86057 -0.63377 -0.046002 0.19763 -0.25706 -0.50048 -0.040841 0.54999 -0.19885 0.33951 0.11379 -0.05841 -0.19344 0.59044 -0.39468 0.29903 0.1652 0.17736 -0.78986 -0.38153 0.34737 0.21312 -0.55181 -0.57188 0.28805 -0.41028 0.13824 -0.96083 -0.33332 -0.53774 -0.44861 0.20741 -0.037973 -0.43429 0.32823 -0.59334 -0.4925 -0.35619 0.50575 -0.65351 -0.82874 -0.13531 0.33507 -0.033446 0.58546 0.24 0.11225 0.56417 -0.63331 -0.25607 0.15313 -0.2955 -0.24543 0.37776 0.93823 -0.36356 0.37652 0.1062 0.088464 0.29486 0.033157 -0.28482 0.69527 -0.11695 -0.4462 -0.46721 -0.31915 0.49548 0.21365 -0.35601 -0.18064 -0.11487 0.83202 0.073385 
62XK8 0.77713 -0.21705 -0.23039 -0.46258 -0.91161 -0.071357 -0.04384 -0.18245 -0.66799 -0.27556 -0.13462 0.35239 -0.29711 -0.080408 -0.1812 -0.035756 -0.069636 0.17668 -0.30123 0.31741 -0.0053014 -0.011818 -0.090589 0.20715 -0.78749 -0.28852 -0.15362 0.11642 -0.16636 0.62142 -0.135 -0.099653 0.25648 0.85118 -0.62144 -0.26549 0.63365 0.11038 0.13765 0.31832 0.20299 0.50818 0.26156 0.031676 -0.82333 -0.34041 0.36474 -0.21526 -0.43744 0.075379 0.31842 -0.38392 0.26228 -0.11147 -0.24059 -0.56991 -0.26327 -0.36707 -0.51955 -0.60238 0.84869 -0.73131 -1.0972 -0.88221 -0.28377 -0.065909 -0.9711 0.22082 -0.18409 -0.39152 0.16928 0.22264 0.56101 -0.28852 0.24231 -1.0042 -0.13629 -0.38218 0.066915 0.26633 0.99398 0.12108 0.11927 0.45455 0.10133 0.32874 0.59221 -1.0381 0.63732 -0.58294 0.027989 -0.21342 0.15249 0.2059 -0.16857 -0.27416 0.0041349 0.25736 1.3841 -0.0042671 
5zvAi 0.16625 -0.099813 0.37401 0.086222 -0.60765 0.31724 0.16418 0.42695 0.085604 -0.1074 0.92867 0.21282 -0.17503 -0.1877 0.25926 -0.45865 -0.4785 -0.0040424 -0.44985 -0.5385 -0.71024 0.40498 0.36457 -0.039848 -0.32288 -0.4921 0.47806 0.34098 0.12562 0.17826 -0.33772 -0.98275 0.41289 0.18562 -0.2838 0.012314 -0.085585 -0.05877 -0.23521 0.30623 0.2475 -0.38981 0.78524 0.070778 -0.70542 -1.0353 0.23265 -0.30403 -1.0106 0.37711 0.19235 0.004403 0.038921 -0.20475 -0.30907 -0.23724 -0.006703 -0.39169 -0.56752 -0.32571 -0.66582 -0.2297 -0.099096 -0.3703 0.050716 -0.17642 -0.27893 0.37958 -0.10381 0.23114 1.0477 0.24982 -0.094149 -0.20736 -0.069622 -0.32893 -0.19429 0.116 -0.27003 0.017584 0.79844 0.025291 -0.14681 0.12885 0.95101 0.14194 0.15944 -0.78764 -0.060523 -0.11356 -0.23114 -0.13612 0.13193 0.14137 0.29306 -0.74542 0.10738 0.041055 0.66533 0.31799 
63dQ4 0.44278 -0.4494 1.1168 0.2713 -0.73192 -0.13537 -0.68865 -0.24018 0.11622 -0.49897 -0.0466 0.017109 -0.53721 0.24724 0.052344 -0.49719 0.10866 -0.34184 0.44938 0.30952 -0.53152 0.18891 0.47489 -0.27211 0.11904 -0.43393 0.88737 -0.66709 -0.25776 0.23837 -0.34499 -0.46099 -0.058735 0.51511 -0.14455 0.25448 0.39107 -0.11822 -0.079967 0.60718 -0.52003 0.35562 0.13368 -0.070494 -0.73875 -0.30226 0.12242 0.2552 -0.33195 -0.2952 0.27591 -0.35575 0.45096 -1.004 -0.35923 -0.60046 -0.41224 -0.011399 -0.18048 -0.69465 0.42854 -0.59852 -0.54349 -0.50585 0.52754 -0.63759 -1.0133 -0.055884 0.32249 0.041294 0.67328 0.14174 0.099468 0.44838 -0.54028 -0.16757 0.4294 -0.31453 -0.24199 0.45093 0.99558 -0.45776 0.44059 -0.017291 -0.053662 0.28844 0.064469 -0.011406 0.60718 0.25166 -0.49453 -0.38714 -0.29378 0.41349 0.064543 -0.20878 -0.29307 -0.13915 0.8345 0.070123 
62Ad0 0.71873 -0.79886 0.30969 0.8307 -1.2161 -0.042232 -0.032261 0.022975 0.17322 -0.15744 -0.044756 0.76201 -0.394 -0.033792 0.093325 -0.20543 0.49214 0.38144 0.57787 0.051054 0.3566 0.026346 -0.37098 0.73478 -0.12255 -0.26495 0.8734 -0.42143 -0.19204 -0.071034 -0.38724 -0.063801 -0.16522 0.072581 -0.090388 -0.31817 0.47252 -0.2093 0.15167 0.24088 -0.015022 0.57137 0.25357 -0.52357 -0.542 -1.0695 0.036541 -0.21709 0.013367 0.99563 0.19246 -0.1447 0.9438 0.0051264 -0.22242 -0.64805 -0.064081 -0.8984 -0.50905 -0.96356 0.25651 -0.097902 -0.10029 -0.68914 -0.33971 -0.2366 -0.54052 0.21135 0.12879 -0.077582 0.25282 0.19515 0.0075646 -0.44078 0.79142 -0.30251 0.30073 -0.080783 -0.8855 0.40728 0.95013 -0.53937 -0.082225 0.14697 0.41304 0.11064 0.051854 -0.25886 -0.3425 0.55004 0.18094 -0.014822 -0.30281 0.59147 0.37808 0.18985 0.0035473 -0.29154 0.22358 0.47407 
65GMy 0.27857 -0.23677 0.13936 0.23816 -0.60325 0.036021 0.084642 0.39965 0.36468 -0.054678 0.037017 -0.0072558 -0.23678 -0.20406 0.21823 -0.39808 0.18442 -0.17959 0.28537 -0.046371 -0.21311 0.16021 -0.3823 0.063775 0.31391 -0.10006 0.3978 -0.2026 -0.23015 -0.10916 -0.30706 -0.021244 0.016352 -0.10872 0.072226 -0.037924 0.05919 0.13546 -0.042397 0.22085 -0.45471 0.0088006 -0.097257 -0.12851 -0.078323 -0.58721 -0.18842 -0.13516 -0.12027 0.42059 -0.12798 0.05747 0.14542 -0.29155 -0.063385 -0.30903 -0.014051 -0.27696 -0.49987 -0.68495 0.11479 0.091348 0.048139 -0.44746 -0.10099 -0.35045 -0.3492 0.1564 -0.01384 0.11745 -0.19147 0.22723 -0.074754 -0.18281 0.25099 0.059343 0.28496 0.091742 -0.2263 0.26491 0.41394 -0.11759 -0.04557 -0.12968 0.13397 -0.16091 -0.1153 -0.010805 -0.063897 0.49905 -0.17639 0.1041 -0.33511 0.21134 0.15312 0.60097 -0.18728 -0.40265 0.21042 0.4049 
6DfTo 0.67769 -0.78569 0.31657 0.88545 -1.1957 -0.058302 -0.23506 0.052524 0.18467 -0.15523 -0.049532 0.50076 -0.46347 -0.090467 0.17443 -0.26128 0.44887 0.2127 0.59881 0.047014 0.2923 0.15175 -0.3567 0.59897 0.011117 -0.36501 0.89813 -0.46989 -0.15394 -0.13173 -0.51506 -0.0015524 -0.14857 0.032592 -0.065939 -0.26928 0.43404 -0.20775 0.01269 0.37954 -0.23684 0.56737 0.1617 -0.43664 -0.47119 -0.97045 0.049024 -0.14845 -0.014928 0.99723 0.12839 -0.019694 0.85848 -0.014954 -0.19427 -0.57038 -0.075273 -0.753 -0.6585 -0.96423 0.25423 0.0033635 -0.084807 -0.67468 -0.31434 -0.34119 -0.50154 0.22547 0.11907 0.081886 0.053018 0.2499 0.066982 -0.36076 0.89045 -0.29393 0.36623 -0.063188 -0.78056 0.50522 0.98663 -0.59502 -0.12071 0.17202 0.36392 0.075657 0.029931 -0.12532 -0.30983 0.67276 0.15307 0.001269 -0.24821 0.55202 0.38715 0.2227 -0.17572 -0.30544 0.12523 0.46956 
6A8t6 0.74272 -0.24395 -0.14127 -0.19491 -0.80856 0.022381 -0.64419 -0.17345 -0.99395 -0.081473 -0.16181 -0.16892 -0.12381 0.099976 -0.54577 -0.12542 0.061927 0.054696 -0.45398 0.20948 -0.080297 0.28679 0.55151 -0.0052315 -0.61171 -0.26661 0.3974 -0.096696 -0.45001 0.52969 0.019294 -0.18439 0.40203 0.82465 -0.27841 -0.16128 0.29491 -0.32693 0.2513 -0.21193 -0.10397 0.37438 0.66835 0.11663 -0.80912 -0.38312 0.3372 -0.08288 -0.90564 0.068967 0.26728 0.14114 0.040346 -0.23964 -0.10109 -0.42522 -0.29534 -0.019182 0.061913 -0.16788 0.33583 -0.13069 -0.81061 -0.79565 0.056921 -0.068801 -0.5415 -0.14542 0.10814 0.11229 0.17138 0.28596 0.47943 -0.035469 0.28498 -0.66092 0.16472 -0.50797 0.21226 0.42109 1.23 -0.28096 0.43553 0.63626 -0.17073 0.47136 0.80168 -0.25156 0.78638 -0.37335 0.12398 -0.50103 0.41978 0.35432 0.49574 -0.53914 0.11962 0.22059 1.0878 -0.080893 
